10 512
-2.1223e-02  1.1994e-02 -3.2283e-02 -5.8188e-02  5.4565e-02  2.9249e-02 3.6281e-02 -6.5382e-02  9.1715e-02  9.3551e-02 -3.1101e-02  5.1687e-02 7.2329e-02 -4.3254e-02 -8.3465e-03  1.4735e-02  5.1366e-03  2.3764e-02 4.1840e-02  1.1962e-01  4.7002e-02  7.4986e-02  5.3048e-02  4.9734e-02 1.2054e-03 -1.3816e-02 -6.4002e-03 -1.0929e-01  3.8789e-02 -5.9346e-02 -5.4910e-02 -2.3729e-02  5.2049e-02  1.7271e-02  7.9907e-03  2.4697e-02 4.5455e-02 -3.1078e-02 -8.7837e-02  6.8713e-03  4.3985e-02 -7.0143e-02 -6.6617e-02 -2.0261e-02  5.9470e-02 -9.4365e-02 -6.5065e-02  1.7560e-02 1.0360e-02 -2.1735e-02 -4.5841e-02  7.3312e-02 -6.0724e-02 -1.3055e-02 8.9786e-03 -1.7101e-02 -1.7387e-01 -1.5211e-01 -1.4910e-01 -4.9652e-02 -2.9265e-02 -4.6113e-03 -1.0074e-02 -6.2295e-02 -5.6781e-03 -5.5380e-02 -5.5443e-02  2.3100e-02 -6.0840e-02  8.8780e-04  6.5564e-02  8.2425e-02 1.0038e-03 -1.2870e-02  2.0456e-02  2.3281e-02  3.1935e-02 -2.5206e-02 -6.5190e-04  7.5531e-03 -5.1947e-02  4.4421e-02 -1.1268e-01 -1.4728e-01 -1.5522e-02  4.4479e-03 -6.1562e-02 -1.3434e-02  6.9811e-02  4.1398e-02 -2.9403e-02  3.0018e-02 -4.7003e-02 -1.7127e-01 -5.8094e-02  1.6653e-02 -7.6708e-02 -3.8419e-02 -1.9560e-02 -1.8663e-02 -5.1104e-02  2.8648e-02 2.3725e-02  6.1009e-02 -4.1548e-02 -1.0073e-01 -7.9520e-02 -3.4898e-02 -9.4682e-03 -5.6545e-02  3.9588e-02  4.9756e-02 -5.0485e-03 -6.6264e-02 -2.9263e-02  4.1866e-02  3.0142e-02 -3.4356e-02 -6.5179e-03  1.0167e-01 4.2289e-02  2.1092e-02 -5.7324e-02 -3.7972e-02  3.1447e-02  4.0302e-02 -5.8389e-02 -6.0303e-02 -4.2691e-02 -5.4245e-02 -1.1976e-02  3.7659e-02 -1.0758e-01 -8.5970e-02 -6.5025e-02 -5.1479e-02  6.3388e-03 -1.3575e-01 3.6628e-02  1.0408e-01  5.8029e-02  5.0796e-02  9.0808e-03  6.8671e-02 -1.0834e-02  4.6179e-02  3.8528e-02  9.8590e-02 -7.6056e-02 -1.3602e-01 -4.1662e-04 -8.2444e-02 -1.6384e-02 -5.4101e-02 -6.6134e-02 -1.8177e-01 -1.3111e-02  4.6463e-02  5.6012e-02 -4.2494e-02 -6.9398e-02  3.7344e-02 -2.1327e-02 -7.0986e-02 -4.3093e-02 -2.3864e-02  1.8896e-02 -1.0581e-01 -1.3684e-01 -3.3147e-02 -4.9596e-02 -2.0502e-02 -8.0494e-02  2.6160e-02 1.8849e-02  1.2256e-01  3.2282e-02 -1.0255e-02  3.3243e-02  4.3283e-02 3.8402e-02 -9.1539e-03 -5.8422e-03  5.1273e-02  3.0710e-02 -1.1879e-02 -7.9498e-02  3.3136e-02  7.6477e-02  5.4603e-02 -1.1486e-01 -8.2864e-02 -4.3349e-03 -5.4422e-02 -7.7448e-02  6.1086e-02  7.1204e-02  1.5673e-02 8.1966e-03  9.0775e-02  3.8317e-02 -4.3622e-02 -2.2621e-02  7.0897e-02 2.3523e-02 -8.9127e-02 -6.9529e-02  6.0064e-04 -1.2267e-02  7.6640e-02 5.7100e-03 -3.6144e-02  7.6321e-02  3.3842e-02 -4.4969e-02 -2.4916e-02 1.3837e-01  2.9275e-02 -1.4014e-01 -1.8069e-02  1.2842e-01 -3.7429e-02 -9.0175e-02 -6.5319e-03 -2.3092e-02  1.8338e-02  8.2316e-02 -8.3971e-02 -7.3648e-02 -6.4604e-02 -3.6924e-04 -9.6357e-02 -1.2964e-01 -1.2495e-01 -4.6724e-02 -8.1909e-02 -1.9991e-03 -4.0894e-02 -3.4496e-02  1.6284e-02 -1.0582e-01 -2.4170e-02  8.5364e-02  1.3758e-01 -7.8867e-02 -9.2288e-02 2.4124e-02  1.0562e-01  3.0070e-02 -1.0937e-01 -4.3407e-02  4.5996e-02 3.0271e-02  4.1202e-03 -2.9047e-02  1.3950e-02 -1.6598e-02 -5.5267e-02 2.1238e-02 -1.9305e-01  2.6648e-02 -4.2161e-02  2.7717e-02 -1.4962e-01 3.4545e-02 -5.2967e-03 -3.0890e-02  1.1304e-01 -7.7319e-02  2.6675e-02 2.6098e-02  8.9944e-02  3.2593e-02  2.6721e-02 -4.0206e-02 -3.2660e-02 1.5376e-02  1.9581e-02 -1.0926e-01 -4.5364e-02 -2.6581e-02 -8.9067e-02 -3.2967e-02  5.0300e-02  6.6726e-02  4.5989e-03  2.0257e-02  5.3347e-03 -5.2356e-02 -8.8010e-02 -4.9954e-02 -6.5048e-02 -1.7776e-02 -9.1113e-02 -5.6798e-02 -8.6669e-02 -8.1537e-02 -6.9347e-02 -1.5638e-01  6.0595e-02 -7.7875e-02  2.6632e-02  5.3722e-02  1.0914e-01 -4.6374e-02  1.7682e-02 4.8280e-02  1.4730e-01 -3.5605e-02 -3.1961e-02  5.9910e-03  4.0265e-02 -6.3689e-02  6.5650e-03 -1.0014e-01  5.9692e-02  6.3398e-02  4.3553e-02 -1.7606e-01 -9.0043e-02  1.7652e-02 -3.6875e-02 -3.2126e-02 -8.2363e-03 -4.4160e-02 -3.1171e-02  2.8545e-02 -3.0463e-02 -1.1270e-03  3.0559e-02 -1.6937e-02  4.4130e-02  2.0808e-03 -3.1124e-02  1.9049e-02  2.8502e-02 -5.8028e-02 -1.6483e-02  2.5129e-03 -4.6536e-02 -7.3122e-02 -8.5824e-03 4.1115e-02 -9.1877e-02 -4.1297e-02 -3.7848e-02 -6.3076e-02 -1.0116e-01 -2.7825e-02  6.9651e-02  3.5563e-02  1.0158e-01 -1.5116e-01 -3.8471e-02 -4.9026e-02  4.5558e-02 -2.8344e-01  7.9112e-03  2.8645e-02  8.2502e-02 9.4203e-03 -5.9005e-02 -8.4875e-02  9.7225e-03  1.2171e-03 -3.5982e-02 3.2227e-02  7.9142e-02  2.2916e-02  7.2723e-02  8.1298e-02  7.8898e-02 4.9421e-04  6.5600e-02  6.4784e-02  3.5233e-02  1.3063e-02 -1.0072e-01 -6.8529e-02 -2.5734e-01 -1.8798e-01 -2.5567e-02  1.2359e-02 -2.0744e-01 -1.2149e-01 -1.9690e-01  1.7050e-01 -6.1716e-03  3.8581e-02 -1.1000e-01 6.9489e-04  6.3875e-02  1.1033e-01 -1.7402e-01 -5.9067e-02 -5.8334e-02 7.5862e-02 -1.1676e-01 -3.1001e-02  1.1657e-01  2.8438e-02  9.3889e-02 1.0013e-01 -5.4330e-03 -1.1367e-01 -5.9144e-02 -1.0225e-01 -6.3136e-02 -1.4631e-01  4.1501e-03  8.6064e-02 -7.3305e-03 -3.1574e-02  7.4957e-02 -1.0287e-01  1.2874e-01  1.5185e-02  1.0560e-01 -7.4671e-02 -8.8638e-02 7.7861e-02 -1.2162e-01  9.0002e-02  9.2902e-02  2.1078e-02 -1.1160e-01 4.6782e-03  5.9464e-02 -1.1104e-01 -7.8906e-02 -7.6422e-02 -2.9141e-03 -3.4391e-02 -4.7688e-03  2.8408e-02  4.5896e-02  3.1028e-02 -3.0303e-02 -5.5758e-02 -3.0164e-02  4.6822e-02 -8.6737e-03 -5.5803e-02  5.1554e-02 7.3529e-04  4.0309e-02 -9.6480e-02  6.9146e-03  3.0646e-02  9.4738e-03 -5.8285e-02  7.3919e-03  4.1402e-02 -5.6721e-02 -1.9109e-02 -9.9129e-03 -9.6757e-03 -2.7882e-02  8.0905e-03  2.7837e-02  5.5132e-02  3.4751e-02 1.1347e-01  1.5738e-02 -1.5543e-02  3.9806e-02 -1.0345e-02  3.7324e-02 4.7524e-02 -3.0063e-02 -3.0230e-02  8.0713e-02  1.8148e-03 -2.0002e-02 -7.1307e-02 -2.4024e-02  7.8476e-02  1.3947e-01  8.2835e-02 -1.6277e-01 9.7063e-03  1.5434e-02  1.0050e-03 -1.4169e-02 -3.3392e-02  2.9246e-02 -1.3040e-01  6.0455e-03  4.3322e-02  1.4243e-01 -5.3808e-02  3.8529e-03 1.5996e-01 -1.5369e-02 -9.8362e-02 -9.7082e-02 -1.3362e-02 -4.4464e-03 7.1354e-02  5.2482e-02 -4.6760e-02  1.0642e-02  7.8835e-02  7.7870e-02 3.2948e-02 -7.4484e-03 -3.2014e-02 -4.8856e-02  5.1060e-02  7.5718e-02 -7.6672e-02 -1.7052e-01
-9.0720e-02 -4.9502e-04  4.9414e-02  6.3044e-02 -2.1293e-01 -1.3166e-02 3.8948e-02  4.7891e-02 -1.1658e-01 -4.6884e-03 -3.6208e-02 -5.8853e-02 1.9393e-02 -2.9509e-03  7.4999e-03 -6.2585e-02 -6.6543e-02  1.0700e-01 6.4259e-02 -3.1791e-02 -2.4406e-02  4.5829e-02  2.6267e-02  1.3680e-02 -2.5951e-02  3.2832e-02  1.8083e-02  2.4816e-02 -1.1434e-02  1.2618e-01 7.1779e-02 -6.3299e-03 -7.1959e-02  6.0276e-02 -1.0657e-02  3.5294e-02 -4.8070e-02  1.8688e-02  4.7532e-02  8.2607e-03 -4.0181e-02  4.8872e-02 -1.0065e-03 -6.3974e-02 -7.7319e-02  4.9553e-02  6.9201e-02 -1.9327e-02 1.7992e-02 -2.8513e-02 -1.2810e-01 -9.1295e-02  2.7947e-02 -4.8392e-02 -6.9950e-02 -8.0880e-03 -1.4051e-01 -1.2595e-01 -1.4427e-01 -8.6520e-02 3.7750e-02 -1.1490e-01 -4.4244e-02  4.7000e-02 -7.8125e-02 -5.4253e-03 2.1945e-03 -2.7537e-02 -1.0968e-02 -7.6659e-02 -5.2433e-02 -1.1831e-02 -1.1900e-02 -9.5710e-02 -3.4707e-02  2.8135e-02 -7.1491e-03  1.5996e-02 -1.1968e-02 -3.5079e-02 -1.4164e-01  6.9723e-02  9.9640e-02  1.0687e-01 -7.5547e-02 -6.4216e-02 -2.5131e-02  1.0509e-01  3.3269e-02  5.9228e-02 2.1703e-02 -5.9595e-02  1.3255e-01  1.1497e-01 -1.0317e-01 -1.3158e-01 5.7061e-02 -7.7629e-02 -6.0227e-02 -1.6628e-02 -5.0713e-02 -1.0450e-01 -2.4067e-02 -6.6702e-03 -1.4288e-02 -4.4987e-02  3.9633e-02  1.4538e-02 -1.2715e-01  2.1669e-02  2.5935e-02 -6.0431e-03 -1.1027e-02  2.1539e-02 9.2323e-03 -6.7249e-02 -8.3661e-02 -4.8847e-02 -9.3670e-03 -8.3326e-02 -1.2211e-01 -5.3015e-02 -3.7343e-03 -1.1274e-03 -8.2118e-02 -2.9776e-02 3.6378e-02  6.3980e-03  4.4071e-02  8.9433e-02 -3.6992e-02 -4.7686e-02 2.9270e-03  5.9613e-02 -3.0076e-01 -1.0786e-01  5.0550e-02  9.3291e-03 -5.8246e-02  3.0407e-02 -7.0269e-02  3.5480e-02  3.0786e-02  9.3626e-02 -6.3314e-04 -6.1776e-02 -9.6159e-02 -1.0237e-01 -1.1443e-01 -7.1974e-02 -8.6791e-02 -4.8218e-02 -3.0990e-02 -1.8839e-01 -1.1874e-01 -5.8428e-02 3.1282e-02 -1.0292e-01  8.4680e-03  8.4332e-02 -3.4486e-02 -1.7573e-01 -7.5699e-02 -1.0152e-02  4.9105e-03 -3.4142e-02 -2.9486e-02 -9.5190e-02 2.0307e-03 -3.4552e-02 -1.0898e-01 -4.3812e-02  3.1194e-02  1.2875e-02 -3.7303e-02 -5.7186e-02 -6.3382e-02  3.8163e-02 -6.3489e-03 -1.5827e-02 -5.7616e-02  9.7316e-03  1.5192e-02 -9.2225e-03 -9.1678e-02  3.8763e-02 8.3108e-04 -3.2760e-02 -6.6943e-02  8.7130e-03  4.5673e-02  4.6960e-02 2.1579e-02  7.4931e-02  6.0269e-02 -5.1072e-03 -4.7101e-03  6.0080e-02 1.7727e-02  5.3792e-03 -2.9039e-02  1.0725e-03 -9.8047e-02 -1.2499e-01 4.8555e-02 -2.0127e-03 -4.0795e-02 -1.8997e-02 -1.4487e-01  6.0681e-02 1.0367e-01  6.4733e-02 -5.5064e-02  2.7919e-03  3.8632e-02  7.5202e-02 -1.2447e-01  3.1393e-02  6.6851e-02  2.0416e-02  4.7453e-04  9.4331e-03 3.5010e-03 -9.1267e-02  5.9512e-02  8.3224e-02 -9.8512e-02 -1.1583e-01 1.5315e-02  4.5188e-02 -1.2709e-01 -1.2508e-01  1.4564e-01  5.4875e-02 -2.3461e-01 -1.3889e-01  6.2814e-02 -3.7843e-02 -1.1982e-01  1.1955e-02 -9.3479e-03  7.3036e-02 -4.5201e-02  1.8698e-02 -4.5303e-03  1.9167e-02 -7.8418e-03 -2.3391e-02 -8.4721e-02  4.0469e-02 -3.1396e-02 -3.4355e-02 -5.2469e-02 -1.6305e-02  1.0517e-01  1.0600e-02 -7.9698e-02  1.3485e-01 2.3526e-02  2.7842e-02  2.0129e-02 -3.6725e-02  2.2522e-02 -9.2877e-03 3.1702e-02  5.7055e-02  2.2516e-02 -8.2883e-02  1.2129e-01  5.0814e-02 -6.3621e-02 -6.7241e-02 -6.4337e-02  1.3228e-02 -4.5602e-02 -7.4913e-02 5.4348e-02  3.9088e-02 -9.1071e-02 -2.1392e-01 -1.0488e-02 -1.2322e-02 -9.3134e-02 -9.4936e-02  2.4506e-02  3.8868e-03 -3.3926e-02  4.6052e-02 2.3032e-02 -1.3442e-01 -4.0994e-02 -1.3937e-03  1.0236e-01  4.1249e-02 5.0432e-03 -7.5582e-03  1.3178e-01 -8.9030e-02 -7.3659e-02 -1.1136e-01 1.5643e-01 -3.3271e-02 -4.5084e-03  2.0601e-02  6.5404e-03  7.2527e-02 -5.3412e-02 -1.4476e-01 -4.9423e-02 -4.0262e-02 -3.1241e-02  1.6433e-02 -1.3409e-01  1.0896e-02 -1.2575e-02  4.4991e-03 -1.1184e-01  3.6656e-02 5.3006e-02  1.4267e-01 -2.7385e-02  1.9517e-02 -3.0258e-02 -4.3540e-02 -4.4669e-02 -2.5424e-02 -3.3077e-02 -4.7694e-02 -2.3259e-02 -3.6849e-03 -3.5537e-02 -3.5084e-02  2.4181e-02 -1.7575e-02 -4.1469e-02  2.6751e-02 4.9455e-02 -1.6031e-02 -1.3092e-01 -3.8188e-02  5.4090e-02 -3.9331e-02 -1.1923e-01  3.4151e-02 -2.3811e-02 -8.3274e-02 -6.9756e-02 -2.9630e-02 7.2838e-02 -1.2664e-03  1.2064e-01  1.3664e-01  1.2758e-01  4.8961e-02 -3.7232e-03 -4.3881e-02 -7.9260e-02 -2.4741e-02  8.1978e-02 -1.5463e-02 -3.2646e-02  6.7430e-02  5.6480e-02 -4.4210e-02 -8.2669e-02  3.0936e-02 8.1198e-02  5.4147e-02 -2.3469e-03 -3.9271e-02  2.8877e-02 -6.5714e-03 -2.4364e-02 -8.5094e-03  1.5412e-01  1.0794e-01  6.9893e-02  6.8601e-02 2.0267e-01  9.7733e-02  2.4081e-02  9.4624e-02  3.0924e-01  7.9644e-02 -2.2242e-02 -4.5319e-02  1.7071e-01  9.4775e-02  2.6663e-02  4.7556e-02 1.0685e-01 -3.1962e-02 -1.7537e-02  6.7018e-02  1.0332e-01  9.5002e-02 3.6837e-02  4.6810e-02  1.7608e-01 -5.7359e-02  1.3539e-01  1.4499e-01 2.0401e-01  8.5160e-02  1.3689e-02  4.8848e-02  1.7360e-01  3.3393e-02 6.8920e-02  1.3727e-01  1.1234e-01  4.6798e-02  6.6004e-03  4.9564e-02 2.4843e-01 -1.0185e-02 -5.8489e-02  7.7535e-02  2.6448e-01  8.9954e-03 8.7065e-03  8.7345e-02  4.1238e-02  5.5037e-02 -1.9767e-03  4.0421e-02 5.4387e-02  4.1699e-02  4.9800e-02  4.5986e-02  2.4791e-02  2.0853e-02 -6.3173e-03  8.5233e-03  5.2590e-02  5.2039e-02 -5.5168e-02 -6.0605e-02 4.2701e-02  2.8932e-02 -3.8262e-02 -4.1490e-02  8.0693e-02 -2.0997e-02 -6.5731e-02 -2.3470e-02  4.8587e-02  6.2185e-02 -6.1266e-02  2.5734e-02 2.8757e-02 -2.5918e-02 -4.3045e-03 -3.7138e-02 -1.8219e-02 -1.5785e-02 -1.1491e-02  3.9221e-02  5.9478e-02  9.8047e-02 -4.1532e-03  1.8809e-02 2.6625e-02  2.4141e-02  2.4906e-02  6.1264e-02  7.8406e-02  1.4111e-02 6.6185e-03 -8.4140e-02  4.5204e-02 -6.1870e-02  1.3299e-02 -3.8609e-02 8.6207e-02 -2.4147e-02 -9.4174e-02 -1.8519e-02  7.2259e-02  8.2393e-02 -1.5207e-02  1.3039e-01  3.5436e-02  9.2172e-02 -1.2083e-01 -5.7701e-02 4.0669e-02 -2.8015e-02  2.5469e-02  5.5126e-03  7.4197e-02 -5.7248e-02 1.5137e-01  1.8376e-01  1.8367e-02  3.0976e-02  2.8636e-02  1.8600e-02 -1.1173e-02 -7.3915e-02 -7.9549e-02 -6.0483e-02  5.3120e-02 -4.4147e-02 -8.8428e-02 -3.3338e-02 -4.8227e-02  1.9428e-02 -3.7786e-03 -4.8544e-02 3.2437e-02  5.7977e-02
-6.0413e-02 -1.9063e-02 -8.0351e-02 -1.2689e-01 -3.2013e-03 -2.6961e-02 -3.9170e-02  1.4599e-03  1.2587e-03 -1.0060e-02  1.9032e-02  9.8511e-02 8.8127e-02  4.7391e-02  2.2526e-02 -1.5686e-02  2.4176e-03  4.0425e-02 -1.9805e-02  4.6304e-02 -5.9307e-02 -6.4500e-02 -1.5460e-01 -6.2657e-02 -6.3899e-02 -3.2170e-02 -1.1031e-01  3.2530e-03  1.4185e-01 -1.5160e-02 3.2984e-02  6.9519e-02 -3.9618e-02 -2.5027e-02  4.1189e-02 -9.4058e-02 4.2701e-02 -5.5688e-02  1.4015e-02  1.8967e-02  9.1106e-02  5.1538e-02 -1.2183e-02  4.8794e-02  5.7010e-02  1.5198e-02  3.4346e-03 -1.0848e-02 9.5594e-03  2.6127e-02 -6.4045e-03  4.8944e-02  6.2478e-02  5.2474e-03 7.5980e-03 -8.7151e-02 -9.4199e-02  8.9560e-03 -5.2201e-02 -5.9923e-02 -4.6782e-02 -9.4313e-03  3.1165e-02  1.0269e-01  4.2616e-02  5.5011e-02 -2.0853e-02 -5.8559e-02 -6.8390e-02 -1.7337e-02 -4.8858e-02  2.3335e-02 -4.9341e-03 -1.6429e-02 -5.0598e-02 -3.0784e-02 -2.1858e-02 -8.3665e-02 -4.2062e-02 -4.0200e-02 -6.4776e-02 -4.9619e-02 -8.0346e-02 -4.7997e-02 -1.2025e-01  2.7963e-03  4.1771e-02  8.3015e-02 -9.0431e-02 -3.8350e-02 7.6828e-03 -5.5567e-03 -4.5275e-02 -1.6452e-01 -9.1398e-02 -1.6805e-01 2.1927e-02  8.4856e-03 -1.7198e-02 -1.2226e-01  2.6720e-02  4.7903e-03 -5.5686e-02 -1.2474e-01 -2.4063e-03  1.0230e-02 -4.2932e-02  1.2609e-02 5.2631e-02  7.0257e-02  5.3474e-02  1.0845e-01  1.4104e-02 -3.6194e-02 1.9508e-02  1.3215e-03  8.2800e-03 -5.0123e-02 -5.6113e-02 -6.6399e-02 3.5262e-02 -3.2192e-02 -7.1857e-03 -5.2136e-02  6.1647e-03  6.2863e-02 1.4074e-02  5.7213e-02  4.6467e-02  2.0478e-02  2.4305e-02 -1.0305e-01 7.1786e-02  2.3510e-02  3.3476e-02 -6.3755e-02 -6.6237e-02 -3.2680e-04 -1.1290e-01  7.9527e-02  1.0235e-02  4.4242e-02 -1.4925e-03  6.9697e-02 -1.9159e-02  2.7278e-02  1.5540e-02 -3.9072e-03 -3.0639e-02  3.4273e-02 -1.6449e-02 -7.2853e-02 -7.7567e-02 -3.9283e-02  4.5456e-02 -1.5872e-02 -6.6799e-02 -1.4485e-02  1.3481e-01  1.4777e-01  6.8528e-02  3.5594e-02 -2.6214e-02 -4.1027e-02  6.8086e-02  3.2069e-02  1.8866e-03 -4.6411e-02 -1.7688e-02 -2.5812e-02  4.5952e-05 -4.0592e-02  1.1454e-02 -3.5797e-02 1.7996e-02  1.0446e-01  1.6801e-02 -2.4464e-03 -7.5749e-03 -6.3648e-03 2.2679e-02 -5.0052e-02 -2.3766e-02 -3.3474e-02  2.4196e-02 -6.4646e-02 -5.6654e-02 -2.2002e-02  6.0483e-02  1.3174e-02  3.2844e-02  4.6011e-02 1.4483e-02 -1.5287e-03  3.2646e-02  1.1771e-01 -1.7011e-02  8.4223e-03 3.9993e-02 -9.4949e-03 -2.5083e-02  5.1402e-02  1.3577e-02 -7.9941e-02 1.8802e-02 -1.1763e-01 -3.6544e-02 -6.8190e-02  3.4406e-02  4.0788e-02 -1.5642e-01 -1.8032e-02 -5.2696e-02  2.8480e-02 -9.3425e-02 -1.1667e-01 5.0020e-02  4.5716e-02 -3.8391e-02  1.3662e-03  1.6701e-01  4.0162e-02 3.8164e-02  4.5173e-02  4.2922e-02  7.7217e-02  8.9695e-02 -8.6416e-03 4.2502e-02  4.1592e-02 -1.5105e-02 -5.8193e-02  3.6989e-02 -2.1308e-03 1.0846e-02 -2.5167e-03 -5.5533e-02 -3.9341e-02  2.5662e-03  1.7742e-01 9.8572e-03  6.9847e-02  1.0471e-01  3.6499e-02 -8.5960e-03 -8.0332e-03 3.2809e-03 -4.2899e-02 -1.6426e-01 -1.0091e-01 -8.0582e-02 -8.5985e-02 2.2287e-02  1.5524e-03 -3.8983e-03  8.1632e-02  5.5265e-02  6.9239e-03 -9.7557e-02 -2.3093e-01  2.6130e-02  2.8466e-02 -3.8169e-02 -9.2609e-02 5.4506e-02  5.7743e-02  3.1608e-02  5.6504e-02  7.9882e-02 -5.5126e-03 -8.6573e-02  2.3655e-02  1.9870e-02 -1.4259e-02 -5.0969e-02 -9.3488e-02 3.7675e-02  3.6384e-03  1.9848e-02  7.1720e-03  6.8615e-04  3.0326e-02 1.8009e-02 -5.8813e-03  2.1180e-02 -2.0392e-02  4.9190e-02  1.9267e-02 1.4644e-02  1.4525e-02 -1.5877e-02 -4.3928e-02  1.3679e-01  6.8937e-02 -5.1803e-02 -2.1030e-02 -1.1574e-02  5.9365e-02 -3.0175e-02  5.6572e-02 -1.3300e-01 -4.2934e-02 -6.8316e-02  3.7358e-02  5.1519e-02  8.0219e-02 1.1976e-01  1.2463e-01 -7.8442e-02 -6.3178e-02  1.6377e-02 -8.1266e-02 -9.6813e-02 -8.8714e-02 -5.3606e-02 -9.1655e-02  3.7090e-02 -1.9047e-02 1.6239e-02  1.1056e-01  3.6959e-02 -3.8225e-02 -4.4401e-03 -4.8202e-02 -4.2783e-02  2.9313e-02  3.0107e-02 -9.4202e-03 -2.3038e-02  3.6233e-02 1.7403e-02 -3.3158e-02 -2.3457e-02  1.4443e-02  3.9175e-02 -3.8514e-02 1.2141e-02  1.9363e-02  3.6750e-03 -7.4103e-02  1.1326e-01  2.4213e-02 -6.5278e-02 -7.4105e-02  4.6428e-03 -7.4998e-02  1.0571e-02  2.2247e-01 -4.1138e-02 -9.5311e-03  1.0837e-02  1.3091e-01  5.1938e-02  6.5857e-02 2.0755e-02 -1.1232e-02  1.1480e-03 -1.2209e-02 -5.7229e-03  3.0887e-02 -2.7102e-01 -8.8859e-02 -1.1337e-01  5.5272e-02 -8.2799e-02  7.1652e-02 8.8937e-02  1.4209e-01 -4.7143e-02 -3.6530e-02  1.5262e-02 -1.2075e-02 7.9441e-02  1.3231e-01  1.9169e-03  6.1056e-02  1.1281e-01  5.8035e-02 -9.6498e-02  2.9608e-02  4.3276e-02  4.8333e-02 -9.7788e-02  2.9364e-01 1.3551e-01  1.4198e-01  7.1402e-02 -1.7041e-01 -3.4730e-02  2.2418e-02 9.0211e-02 -7.8887e-02 -3.3334e-02  4.7413e-02 -1.0341e-01 -1.1120e-01 3.6292e-02  5.8907e-02 -6.7005e-03 -8.1869e-02  5.5316e-02  3.3882e-02 -1.7074e-02 -4.8655e-04  1.1482e-01  1.7954e-02  1.3813e-02  1.6903e-02 -1.9134e-01 -9.4205e-02  1.1832e-02  4.4854e-02 -2.3173e-01 -1.2306e-01 -1.0687e-01 -2.2266e-02  2.5779e-02  6.3236e-02 -7.8616e-02 -1.7402e-02 -6.5061e-02 -1.3234e-02 -8.3843e-03  6.4746e-02  7.2016e-02 -4.0482e-02 1.3640e-01  5.4594e-02  1.3275e-02  5.8839e-02 -9.6623e-02 -4.1997e-02 -4.5787e-02 -7.8362e-02 -7.1487e-02 -6.6390e-03  2.5203e-02 -8.4264e-02 2.0676e-04  6.4337e-02  1.8216e-02  6.8026e-02 -1.6195e-02 -1.7822e-03 5.5347e-02  8.5817e-02 -8.7593e-02 -1.2627e-01  1.5283e-02 -4.0502e-02 -1.8831e-02 -9.9436e-02  1.2226e-01 -2.2599e-02  4.2185e-02  1.2554e-01 3.3597e-03 -5.6418e-02  6.9838e-03  7.3899e-02  1.3477e-02  9.1239e-02 1.4194e-01  2.2658e-01 -1.4993e-01 -7.6841e-03  4.1862e-02  2.1505e-02 -3.9738e-02 -1.0712e-01 -4.8368e-02  1.1662e-02 -5.1672e-02  9.8556e-02 1.1905e-02 -9.6241e-02  1.3300e-02  1.6864e-01  3.8967e-03  2.4492e-02 -3.2106e-02 -2.3941e-02  2.5568e-02 -1.2003e-01 -1.9164e-01  2.4413e-02 8.5111e-02  6.2092e-02 -1.1102e-01  4.7170e-02  6.2116e-02  1.4812e-01 -4.7225e-02 -6.2309e-02  9.9406e-02 -2.7232e-02 -7.2099e-02  9.5918e-02 2.1125e-02  4.8678e-02 -9.9844e-02 -6.8847e-03  1.4070e-03  5.0763e-03 -1.3354e-01 -5.8875e-02 -3.0584e-02 -5.4254e-02 -8.7143e-03  3.2829e-02 1.3521e-01  7.4850e-02
-1.3707e-01 -7.7726e-02  1.8987e-02  1.8373e-02 -6.6018e-02 -4.4840e-02 9.3751e-02  3.7090e-02 -8.6899e-02 -4.0756e-02  2.6904e-02  2.3093e-02 -7.4042e-02 -5.7384e-02 -9.2813e-02  3.3518e-02 -2.7484e-02 -1.8823e-02 5.6669e-03  3.3917e-02  3.4905e-02  3.7420e-02  5.8333e-02 -1.2029e-02 1.0035e-02 -8.3341e-02 -5.2850e-02 -8.7883e-02 -1.5002e-01 -1.2795e-01 -7.1712e-02 -5.9237e-02  3.1268e-03 -2.5454e-02  8.3299e-03  4.1850e-02 5.9420e-04  7.3643e-02  8.0375e-02  2.6420e-02  2.3709e-02  1.8013e-02 3.6476e-02 -3.9327e-02 -1.2994e-02 -5.7242e-02  4.9157e-02  3.5956e-02 7.8277e-02  7.8515e-02  1.0544e-01  3.1348e-02 -6.2442e-02  3.8126e-02 -2.0290e-02 -2.6019e-02  6.2643e-03  5.9824e-02  1.1313e-01 -3.7730e-03 6.3807e-02  3.1561e-02 -1.6288e-02  5.4873e-03 -8.7231e-02  2.2878e-02 5.4373e-02 -3.0651e-02  5.3673e-02  4.1004e-02 -3.0237e-02  1.0656e-02 5.1752e-02  5.6417e-02 -1.8558e-03 -4.5262e-02 -2.9033e-02  2.2623e-02 2.3432e-02 -2.0293e-02 -1.5345e-01 -4.5814e-02  5.8252e-02  9.0893e-02 2.7930e-02 -6.6751e-02 -6.4205e-02 -1.6301e-02 -7.3181e-03 -7.8669e-02 -7.3261e-02 -9.4194e-03  4.9822e-03 -1.5065e-01  4.2768e-02  4.7823e-02 5.2390e-02  2.0532e-02 -4.9610e-02 -8.8396e-02  2.3923e-02 -3.3993e-02 3.1290e-02  5.7676e-03  3.2078e-02  7.8497e-02  2.3663e-02 -8.1190e-02 3.3159e-02  7.8504e-02 -3.9082e-02 -1.1465e-01  3.1463e-02  3.1594e-02 5.3404e-02 -4.6038e-02 -2.9964e-02 -5.9466e-02  5.0955e-02 -5.1108e-02 -4.8778e-02  6.1486e-02  4.4649e-02 -1.0965e-03 -7.2771e-02  2.1024e-02 -1.0881e-02  1.8381e-02  4.1216e-02  3.8533e-03 -3.7368e-02 -1.9570e-01 2.5421e-02  5.0403e-02  8.0528e-02  8.0330e-02  3.8094e-02  5.8866e-02 3.3880e-02 -3.4854e-02 -4.9459e-04  2.1779e-02 -4.4345e-03 -8.2698e-02 1.1067e-02 -2.1161e-02  4.9964e-03  1.2728e-02 -1.3031e-01 -1.0499e-01 3.2511e-02  1.4828e-02  3.8057e-02  5.0399e-02  8.2763e-02  5.9476e-02 5.8720e-02  4.7785e-03  5.3948e-02 -2.5945e-02  1.2778e-01  2.1345e-02 -2.7104e-02 -1.3058e-02  8.9993e-02  5.9578e-02 -7.8972e-03 -3.1333e-02 -3.8944e-02 -5.9453e-03 -2.3835e-02 -2.3020e-02  5.5871e-02  7.5129e-02 3.0355e-02 -2.0453e-02 -1.7301e-02 -1.9325e-02 -2.6164e-02  2.3429e-02 -3.3955e-02  3.3508e-02  6.3145e-03 -1.1746e-02 -9.8850e-02  3.2900e-02 7.9455e-03 -5.7419e-02 -3.6061e-02 -1.7825e-02 -1.5478e-03 -4.1043e-02 3.9758e-02  1.3851e-01  1.3976e-01  6.8046e-02  6.1747e-02  7.6006e-02 5.2297e-02  7.1851e-03  5.3791e-03 -1.0806e-01 -1.9867e-02  9.8920e-03 -8.6008e-02 -1.2153e-02  3.7828e-02  4.6495e-02 -1.2331e-01 -1.7751e-01 -4.0716e-02  3.2409e-02 -1.9039e-01 -5.5459e-02  1.4589e-02 -1.5365e-02 -1.1290e-01  1.2154e-02  1.1548e-01 -3.6435e-02 -1.6266e-01 -1.1548e-01 -6.5143e-02 -1.2483e-02  1.5696e-02  1.2243e-02  5.9446e-02 -7.9723e-02 -4.1012e-04 -2.6643e-02  4.1280e-02 -9.3940e-03 -2.1033e-02  1.6078e-02 4.9600e-02  1.0348e-01  6.9340e-02  6.8618e-02  3.1948e-02 -8.8520e-02 -1.8944e-03  4.7517e-02  5.1763e-02  5.2375e-02  2.6775e-02 -8.5502e-03 3.0518e-02 -6.0802e-02 -4.9314e-04  4.9690e-02  4.1785e-02  5.9815e-02 -4.6234e-02  5.3973e-02 -9.9079e-03  3.1850e-02 -6.9031e-02 -1.2846e-01 -6.5097e-02 -2.3261e-02 -1.5121e-02  1.1655e-02  1.3262e-01  1.4496e-01 -1.2811e-01 -3.9550e-02 -2.1012e-02 -5.8083e-02 -5.1424e-02 -2.5055e-02 1.5315e-02  5.9009e-02  6.8661e-02  7.7400e-02  3.7645e-02  2.7686e-03 -1.6793e-02 -1.1418e-02  4.0659e-02  5.2993e-02 -4.8551e-02 -3.8274e-02 2.9620e-02  1.9848e-02 -1.7454e-02  1.3901e-02  6.1470e-02  4.7711e-02 1.1170e-01  8.7838e-02  6.5918e-03 -1.5437e-01  8.7672e-02  4.3402e-02 5.2290e-02 -5.9377e-02 -1.5960e-02  6.7487e-02  8.9285e-02 -1.0670e-01 3.3231e-02  2.2632e-02  3.4918e-02 -3.8874e-02 -4.8208e-02 -4.0114e-02 9.1635e-02  3.2158e-02  1.0008e-02  1.7064e-02 -1.9657e-02 -1.1493e-01 1.3818e-02  8.6747e-02  5.5444e-02  3.1511e-02 -1.2132e-02 -3.0453e-02 -9.3199e-02 -7.1401e-02  1.0859e-02  2.0559e-02  1.6562e-02 -3.3698e-02 -2.8815e-02 -5.3503e-04  3.8475e-02  2.8614e-02  7.4318e-03  2.1059e-02 1.9455e-02 -3.3865e-02 -4.4542e-02 -4.8669e-02 -1.9616e-02  4.0824e-02 9.7616e-02  3.0182e-03 -4.0416e-02 -1.8703e-02  5.4097e-02 -1.0892e-03 4.7294e-03 -9.4834e-02 -1.7030e-03 -6.3189e-03 -5.2491e-02 -1.6063e-01 2.9138e-02  4.4979e-02 -1.1552e-01 -2.2778e-01  5.7127e-02  3.1184e-02 6.0579e-02 -1.2246e-01  1.1432e-02  3.5658e-02 -4.8085e-02 -1.1924e-01 8.0984e-02  6.7968e-02  1.3892e-02  2.8259e-02  1.4385e-02  3.6561e-02 2.1477e-02 -5.1825e-02 -2.1714e-02 -5.2784e-02  2.3385e-02 -5.2433e-02 -3.5768e-02 -8.4587e-02 -1.2167e-01 -5.0396e-02 -3.6756e-02 -3.9661e-02 -1.3869e-01  1.4546e-01  4.9861e-02 -4.2375e-02 -4.0365e-02 -9.7310e-02 3.2501e-02  7.9641e-02 -1.6665e-01 -1.2165e-01  1.9866e-01  1.3998e-01 -1.5911e-01 -1.4011e-01  1.0013e-01  4.6031e-02 -1.5019e-01 -7.2016e-02 -1.2606e-01 -1.3529e-01  1.3574e-02 -1.2705e-02  3.8974e-02 -3.1661e-02 5.0644e-02  4.8107e-02  2.4295e-02 -1.1148e-01 -2.3720e-02  1.9927e-02 1.5630e-01 -3.2798e-02 -4.5639e-02 -8.8664e-02  2.7045e-01  6.2996e-02 -1.4537e-02  9.5511e-03 -1.1614e-01 -1.9766e-01 -3.9450e-02  8.3823e-03 -8.3239e-03  9.2312e-02 -1.4318e-01 -1.2084e-01 -6.9795e-02  2.2211e-02 -1.3592e-01 -1.4018e-02 -9.7345e-03  7.6228e-02  3.1091e-02 -6.5752e-02 -6.6195e-02 -1.6547e-02  4.7226e-02  9.4670e-03 -1.1244e-01  1.0502e-02 2.0103e-02 -5.3543e-02 -8.3180e-02  1.5082e-02 -7.9543e-02 -2.1716e-02 -2.0266e-02 -1.0406e-02  2.2307e-02  6.6457e-03  2.8489e-02 -1.7413e-02 -1.9879e-02 -4.8783e-02 -1.3558e-01 -5.2073e-02  5.5041e-02 -2.3575e-02 2.2146e-02 -1.2215e-02 -6.7197e-02 -8.6024e-02  8.7501e-02  1.5621e-02 -2.4655e-02 -4.4423e-02 -7.0123e-02 -1.2781e-01 -6.2749e-02  2.6187e-02 -1.3624e-01 -1.2671e-01 -9.2285e-02 -4.4070e-02  6.0130e-02 -5.6016e-02 1.8277e-02  5.2528e-03  1.0303e-01 -2.1448e-02 -2.3975e-02 -8.3658e-03 -2.3365e-01 -1.5322e-01 -1.1026e-01 -4.6546e-02  5.1397e-02 -2.0106e-01 -4.5336e-02 -1.5674e-01 -6.7289e-02 -1.3812e-01 -8.9041e-02 -1.0100e-01 -8.6659e-02 -1.1565e-01 -6.7952e-02  5.5389e-02 -3.2410e-02  1.5977e-02 -1.9038e-02 -4.7129e-03 -9.3419e-02 -1.5953e-02  2.0924e-03  1.2229e-02 -5.3033e-02  1.0990e-03  8.2186e-02  2.6385e-02 -1.6432e-02 -2.9259e-02 3.0600e-02 -3.4295e-02
1.6412e-02  5.4422e-02  7.8878e-02  7.9868e-02  7.7042e-02  4.8351e-02 -1.9282e-02  3.7678e-02  1.4790e-02 -3.0812e-02 -3.3931e-02  7.2328e-02 7.0305e-03  2.2963e-02 -2.1755e-02 -2.8036e-02  7.9954e-02 -1.6657e-01 1.1907e-02  7.0066e-02 -1.1498e-01 -8.5871e-02 -9.7917e-02  1.0270e-03 5.4780e-02 -6.6184e-02  5.5748e-02  7.8589e-03 -2.9437e-02 -3.5938e-02 1.1028e-01  8.5065e-02  2.1479e-02 -1.3152e-01 -1.2514e-01 -2.1678e-02 -3.9143e-04 -2.0034e-03 -5.1397e-02 -2.2944e-02  3.5764e-02 -2.6386e-02 6.5140e-02  4.9696e-02 -7.5098e-02 -4.7362e-02 -1.5478e-02  7.9300e-02 -5.6369e-02 -7.6072e-02 -2.3035e-01 -1.7089e-01 -5.9753e-02 -9.3310e-02 -6.0027e-02 -1.0279e-01  4.8431e-02  1.2126e-01  1.0168e-02 -6.3940e-02 3.9332e-02 -2.2147e-02  4.6536e-02  1.1538e-01  7.7204e-03 -2.5279e-02 -7.5177e-03 -2.4391e-02 -3.2819e-02 -6.0150e-02 -3.3714e-02 -1.9717e-02 -4.2927e-02 -1.0795e-01 -5.6342e-02 -4.7668e-02 -7.2205e-02 -1.4163e-02 4.6123e-02 -6.1126e-02  2.2541e-02  1.2294e-01  1.2906e-01  1.4711e-01 4.4013e-02 -3.2560e-02 -6.0868e-02  5.3087e-02  5.3273e-02  3.0283e-02 -2.0246e-02  2.8198e-03  4.8174e-02  1.0597e-01  4.5028e-02 -3.6425e-02 -3.3152e-02 -1.4714e-01 -3.0420e-02 -1.0565e-02 -3.0286e-02 -6.5191e-02 -5.6271e-02  1.8943e-02  6.7361e-02  2.8485e-02  1.3723e-02  6.4259e-02 1.3692e-02  1.7462e-02 -3.1704e-02  1.9111e-02  7.6741e-02 -5.6007e-04 -3.2506e-02 -6.5282e-03 -1.2968e-02 -2.3588e-02 -1.4156e-02  3.6821e-02 -5.3300e-03 -2.0147e-02  3.6446e-02 -5.8395e-02  5.5815e-02 -5.8268e-02 -1.7514e-03  2.2841e-02 -4.8467e-02  2.8038e-02  1.3338e-03 -8.7488e-02 2.4416e-02  2.8321e-02 -1.9184e-02  4.8218e-02  1.9269e-02 -2.9944e-02 2.2883e-02  2.9054e-02 -9.5990e-02 -5.8381e-02 -4.2392e-02 -6.1021e-04 2.5636e-02 -6.5823e-02 -1.0161e-01 -1.4724e-01  3.1751e-02  8.1115e-02 -9.8699e-02 -7.9946e-02  7.4430e-02  6.7372e-02  5.6236e-02  3.3382e-02 -9.9049e-02 -4.3986e-02 -1.4729e-02  6.9927e-02 -1.0578e-01 -2.8207e-01 -3.3610e-01 -2.0821e-01 -1.8744e-01 -1.1615e-02 -5.6204e-02 -3.2437e-02 5.9490e-02  1.0170e-02  8.6368e-02  3.9783e-02  5.5449e-02  2.7918e-02 4.2113e-02  4.9227e-02  6.6981e-02 -5.4352e-02  1.2826e-02 -1.6847e-02 2.4093e-03  5.1310e-02 -3.6412e-02 -4.0683e-03 -2.8246e-02  1.8120e-03 2.1153e-02  1.6698e-02 -3.3507e-02  3.8108e-03  7.0619e-02  1.2240e-02 -6.1338e-03  1.2687e-01  1.6131e-03  2.7854e-02 -3.3119e-02 -4.5006e-02 -1.5365e-01 -7.4238e-02  1.9199e-02  2.8089e-02 -1.2765e-02 -1.1094e-01 2.1926e-02  1.0065e-01  5.4138e-02  2.5847e-02  3.8594e-02 -7.6457e-02 -6.6440e-02  7.8298e-02 -1.4695e-02 -8.5406e-02 -9.9747e-02  7.0466e-02 1.2365e-01  7.3055e-02  2.1678e-04 -2.0367e-02  7.8433e-02 -1.1242e-02 8.1527e-02  6.1069e-02 -1.4024e-01 -1.7367e-01 -1.6898e-01 -3.6397e-01 -1.8989e-01 -5.0619e-02 -7.0083e-02 -1.4100e-01 -3.1870e-03  8.8733e-02 1.0305e-01 -5.3769e-02  2.7436e-02  5.8898e-03  3.5861e-02 -1.4681e-02 1.0965e-01  9.1556e-02 -1.7323e-02 -5.5895e-02 -3.9086e-02 -1.8584e-02 -3.3684e-02 -3.3460e-02  4.4850e-02  2.7325e-02  3.8992e-02 -1.6610e-02 1.8838e-02  2.8844e-02  2.2345e-03  3.0952e-02 -5.5377e-02 -3.6517e-02 -3.1813e-03  1.3433e-01  2.2786e-02  7.2081e-02 -4.6469e-02  2.1399e-02 4.7773e-02 -1.2103e-01  5.4835e-02  3.7765e-03  5.1598e-02  8.7429e-03 -6.1131e-02 -7.6381e-02 -8.5956e-02 -5.1936e-02 -5.5333e-02 -3.0550e-02 8.0910e-02 -2.1073e-02 -1.0501e-02 -1.1490e-03 -2.2500e-02 -2.0638e-02 3.6345e-02  5.8591e-02 -4.4391e-02 -2.5130e-02 -4.0122e-02 -8.6232e-02 -1.7120e-02 -1.3052e-01 -1.2667e-01 -5.1293e-02 -1.1098e-01 -3.3470e-02 -1.0769e-03 -3.2114e-02  5.2908e-02  6.7637e-03  5.4796e-02  7.7702e-02 -1.5381e-03 -2.1578e-02 -6.5380e-04  4.7896e-02  1.4916e-01  7.0861e-02 -6.8598e-02 -4.7256e-02  3.0663e-02  4.6962e-02  4.5703e-02 -1.0721e-01 -5.6235e-03 -3.8029e-02 -4.7142e-02 -2.9353e-02 -4.9519e-02 -6.8933e-03 3.3219e-02  1.0124e-01  1.5884e-02 -3.3766e-02 -1.6342e-02 -3.0509e-02 -2.8580e-02  4.2871e-02 -9.9724e-04 -2.0204e-02 -1.5479e-02 -1.3904e-02 2.9174e-02  2.7566e-02 -4.9847e-02  1.1823e-02 -3.6100e-03 -2.3569e-02 -1.4114e-01 -1.4944e-01 -7.4590e-02 -4.2205e-02 -7.7697e-02  3.0471e-02 4.5880e-02  4.9356e-03  3.9976e-02  4.7786e-02  4.9509e-02  3.7783e-02 -1.2806e-02 -3.1833e-02  6.2071e-02  8.6620e-02 -4.3385e-02 -8.6024e-02 -2.6582e-02 -1.4453e-01  4.4544e-02  8.5178e-02 -5.2570e-02 -5.7331e-02 6.4139e-02  9.9525e-03 -7.8998e-02 -7.6525e-03 -1.7967e-02 -4.1196e-02 -7.7678e-02 -4.1985e-02 -5.5116e-02  7.8927e-03  1.1844e-02  4.3524e-03 7.5487e-03 -7.2936e-02 -9.4597e-02 -2.2267e-01 -8.3873e-02 -3.4951e-02 1.8165e-02 -2.2217e-01 -6.9433e-02  4.0960e-02  5.2673e-02 -5.5830e-02 1.0767e-02 -1.8714e-01  3.2969e-03 -8.9538e-02 -2.3928e-02 -1.2892e-01 2.6477e-02 -1.4338e-01 -8.3920e-02  1.3388e-02 -1.1053e-01  1.0257e-01 3.0581e-02  6.1913e-02  3.7973e-03  5.2780e-02 -2.4990e-02 -4.0394e-03 -9.0107e-02  1.3993e-02 -1.8065e-02 -7.4422e-02 -7.4074e-02 -6.0591e-02 -6.0585e-02  3.8686e-02  4.5610e-02 -6.9320e-03 -1.2152e-01 -4.8736e-02 -3.6639e-02 -7.7858e-03 -2.8625e-02 -6.1566e-02  1.6594e-01  1.0836e-01 -1.0818e-02 -1.5488e-01  6.4475e-03 -2.8752e-02  3.9492e-02  9.8287e-02 7.9782e-02 -2.2637e-02  8.1347e-02  8.1448e-02 -1.9772e-02 -6.2124e-02 1.6839e-02 -6.8568e-03  2.7356e-02  2.6498e-02  2.6795e-02  4.0670e-02 3.0102e-02  7.4523e-02  3.6327e-02 -4.2208e-02 -2.0295e-02  7.5316e-02 -5.9966e-03 -1.1263e-01  1.6020e-02 -1.1339e-02 -5.9480e-02 -5.6461e-02 3.6051e-02 -2.9767e-02  1.1371e-02  7.1439e-02  4.7846e-02  4.0914e-02 1.1832e-02  7.1745e-02  8.7049e-02  7.3282e-02 -1.2263e-01 -7.5379e-02 -1.6246e-01 -1.3367e-01  7.3266e-02  8.6252e-02  3.3291e-02  6.4571e-02 5.4752e-02  8.6999e-02 -4.2346e-02  9.4612e-02 -6.3953e-03 -5.1325e-02 9.8343e-03  4.1054e-02 -1.4404e-01 -9.8477e-02 -2.3319e-02  6.4996e-02 1.1731e-01  1.2343e-01  4.0020e-02 -1.3847e-02  5.6564e-02  1.3988e-01 -1.3267e-02  9.9141e-02  1.2354e-01  3.3628e-02 -1.0932e-01  1.1300e-01 -1.0052e-02  5.2002e-02  4.7377e-02  1.3359e-02  7.7664e-02 -3.7137e-02 -2.2772e-02 -3.8735e-02  1.5726e-02 -9.4913e-03  1.1777e-02 -1.1124e-02 7.4061e-02  6.5282e-02 -6.0685e-02 -3.7795e-03  1.4252e-02 -6.1962e-02 -5.6481e-02  8.7941e-02
2.8040e-02  1.4799e-02 -9.9548e-03  1.0547e-02 -5.5679e-03 -1.1224e-02 -1.1158e-01 -2.4527e-01 -4.6533e-02 -2.4379e-02 -2.3078e-02 -1.2336e-01 -6.8843e-02 -4.1152e-02  1.0308e-01 -3.5744e-02  3.4724e-02  4.2441e-02 1.2075e-01  1.4234e-01  5.6162e-02  8.7897e-02  5.1979e-02  1.6236e-01 -1.4288e-01 -8.8369e-03 -5.1168e-02 -1.6279e-02 -2.3210e-02 -9.6469e-02 -1.7478e-01 -1.0960e-01  3.8357e-02 -3.1481e-02  2.4192e-02 -1.9692e-02 -2.4171e-02 -4.8089e-02 -8.9836e-02 -7.3027e-02 -2.6200e-02 -4.4860e-02 -1.2961e-01 -1.2733e-01  5.4731e-02  9.2964e-03  4.0132e-02  3.3065e-02 3.6375e-02 -9.7343e-02 -6.4684e-02 -2.4665e-02 -2.3903e-02 -4.9055e-02 -6.0023e-03  1.1656e-01  6.3658e-02  1.5843e-03  6.5213e-02  9.5021e-02 9.7167e-02  3.5838e-02  1.6694e-02 -2.3133e-03  4.2459e-03  3.3305e-03 7.3458e-03  3.6772e-02  9.9556e-03 -1.5762e-02  4.4161e-02  8.8606e-02 -2.8610e-02  9.5105e-03  3.6728e-02  1.8571e-02 -1.4695e-02 -5.4236e-03 2.7961e-02  1.3972e-02 -3.6024e-02 -4.0984e-02 -1.2050e-01 -1.4717e-01 -1.6194e-01  3.9810e-02 -4.1691e-02 -6.1455e-02 -9.9882e-02 -1.2431e-02 2.8450e-02  1.5172e-02  1.2718e-01  5.0708e-02  4.0002e-02  1.3441e-02 -9.5963e-02  1.0397e-01  8.2571e-02  6.8690e-02  4.7223e-03 -4.0519e-02 3.3162e-02  4.6201e-02  1.9736e-02  8.0387e-03 -5.6846e-02 -4.1970e-02 7.1375e-02  6.2024e-03 -8.0772e-02 -4.2106e-02  4.8483e-02  5.7204e-03 4.6805e-03 -1.2299e-02 -1.8048e-02  4.9734e-02  1.1831e-03  4.0453e-02 2.7778e-02  4.3482e-02  2.2724e-02 -3.5136e-03  2.8878e-03 -2.3561e-02 -1.4888e-02 -1.0322e-01 -6.7034e-02  5.7483e-03  3.0039e-02  1.9800e-01 6.7332e-02 -3.6455e-03  5.9126e-02  5.9454e-02  6.3272e-02 -7.5494e-03 -2.2602e-02 -1.2490e-01  5.5700e-03  9.9561e-03  1.6717e-02 -2.9497e-02 -5.3481e-02 -1.1139e-02 -5.4066e-03 -1.9038e-03  5.0963e-02 -2.8358e-02 7.2356e-02  3.6770e-02  5.6274e-02  4.8559e-02  3.6284e-02  6.0986e-02 6.8536e-02  6.0943e-02 -3.8740e-02 -4.6721e-02 -1.7807e-01  1.6108e-03 2.1274e-02  1.0656e-01 -1.1361e-01  1.8076e-02  9.2202e-02  1.0282e-01 2.8448e-02  1.3401e-02 -1.9308e-02  1.8810e-02  1.0147e-01  2.0283e-02 -2.3298e-02 -1.0794e-01  5.4118e-02 -3.1243e-02 -9.3295e-02 -4.5706e-02 2.5647e-02  5.6061e-02  4.1863e-03 -5.4255e-02 -5.7610e-03  1.5633e-02 2.3581e-02 -1.4198e-02 -3.1590e-02 -7.4489e-02 -4.1850e-02 -3.8975e-02 -1.1020e-02 -1.0715e-01 -1.7290e-01 -2.8538e-01 -5.1293e-02 -5.1259e-02 -4.1092e-02 -1.1321e-01  3.0729e-02 -2.1925e-02 -2.0955e-03  7.8844e-02 2.7524e-02 -6.1314e-02  1.4455e-02 -1.9136e-02  9.4610e-02  9.7894e-02 4.8117e-02  5.4307e-02 -1.3182e-02  6.9777e-02  2.5522e-02  1.1189e-01 -9.9007e-02  1.2085e-02 -1.4798e-02 -7.8719e-02 -9.2992e-02 -6.0839e-02 -6.6455e-02 -1.0702e-01 -4.5237e-02 -2.1814e-02  2.3818e-02  1.8952e-01 5.2089e-02  1.0499e-01  1.7350e-02  1.4653e-01  2.5025e-02 -1.5594e-02 2.2066e-02  1.0410e-01  5.6596e-02  1.2225e-02  1.4056e-02 -1.1653e-02 6.9949e-03 -3.3251e-02 -1.3045e-01 -9.2783e-02  6.5117e-02  1.8109e-02 4.4603e-02  5.1453e-02 -1.2149e-02 -3.2391e-03  2.2811e-02  6.9103e-02 1.5118e-02 -2.6457e-02 -2.5182e-02 -2.9883e-02  3.1510e-02  4.3005e-02 6.8958e-02  9.7432e-02 -4.7128e-02 -9.4801e-03 -1.0518e-01 -2.0573e-01 -4.6777e-02 -3.8422e-02 -1.7498e-01 -2.1941e-01  1.2947e-01  7.2468e-03 1.4497e-02 -1.3777e-02 -5.6581e-02 -5.4616e-02 -5.4748e-02  1.1995e-01 -3.3342e-02  1.0878e-03 -7.2801e-02 -1.3184e-01  1.2565e-02 -6.7262e-02 4.5219e-03 -4.5221e-02  7.3866e-02  3.9866e-02  3.1101e-02  5.3322e-02 -1.1840e-01  2.4642e-02  4.3267e-02  9.6379e-02 -4.5282e-02 -2.6308e-02 7.7865e-02  4.1952e-02  8.6602e-02  8.3145e-02 -3.2343e-03 -6.5105e-02 7.6777e-02  2.3629e-02 -6.5682e-03 -5.5066e-02  5.7726e-02 -3.5056e-02 -1.1939e-01 -1.9495e-01  3.4370e-02 -3.0900e-02  2.5099e-02  6.8331e-02 5.4592e-02  8.3455e-03  7.7197e-02  5.6477e-02  4.0092e-04 -4.1066e-02 -8.9710e-02 -1.2353e-01 -2.4318e-03 -1.2843e-02 -1.3359e-02 -2.3955e-02 -5.4351e-03  1.2405e-02  1.6182e-02 -4.5227e-02  1.3750e-02  3.7804e-02 -3.8039e-02  2.2256e-02  3.2074e-02  5.0969e-03 -4.4830e-03 -3.6463e-02 -8.3124e-02 -2.2334e-02  1.1574e-01  1.2834e-01  3.1358e-02 -8.6227e-03 3.2536e-02  1.7096e-01 -1.4995e-02  2.0363e-02 -4.9657e-02  1.0057e-02 7.3065e-02  2.4313e-02 -9.4432e-02 -1.0220e-01 -1.9572e-02 -4.4461e-02 -2.6826e-02  1.4254e-01  8.5848e-03 -1.8265e-02  3.3405e-02  9.4540e-02 2.0885e-02  1.2026e-02  3.4994e-02  8.8563e-04  5.2599e-02 -1.5047e-02 -3.3470e-02 -7.0058e-03  2.2375e-02 -3.7429e-02 -3.7214e-02  7.6939e-03 -2.5496e-02  1.9745e-02  1.0909e-01  1.2271e-01  7.5749e-02  3.5555e-02 5.3516e-02  1.4916e-01  3.5462e-02  2.2671e-02 -5.5485e-02 -5.3577e-02 -6.2988e-02  2.2915e-03  5.6708e-02  2.2018e-01 -1.7149e-02  4.9483e-03 2.6530e-03  9.4716e-02 -5.1171e-02  9.6076e-03  9.0321e-02  4.9080e-02 3.2478e-02 -1.1582e-01  4.1857e-02 -1.4264e-02 -9.2680e-02  5.2378e-03 -6.2931e-02 -2.9206e-02  1.6267e-02  2.2124e-02  4.5477e-02 -1.2141e-01 1.1949e-01 -6.7020e-02 -2.0558e-02 -1.6225e-01  1.8374e-01  4.2919e-02 -1.0319e-02  8.2985e-03 -2.8728e-02  2.4705e-02 -3.8705e-02 -1.8027e-01 -9.1915e-03 -5.1840e-02 -1.0093e-01 -5.2012e-02 -1.5180e-01  1.5484e-02 -7.7762e-02  5.7256e-03 -9.0738e-02  4.4715e-03  4.5667e-02  9.6418e-02 6.9124e-03  2.8308e-02 -2.1682e-02 -8.6480e-02  6.4624e-03  1.7892e-02 -9.1352e-02 -6.4523e-02  1.2822e-02 -6.5608e-03 -2.3853e-02  1.1651e-02 8.2374e-03  3.3551e-02  3.8361e-03  7.1233e-03 -1.9418e-02 -4.3482e-02 -6.8565e-02  3.9024e-02  1.2451e-03  1.2264e-03 -8.5294e-02 -9.4429e-02 2.1167e-02  1.1785e-02 -6.2319e-02 -1.1079e-01 -3.1812e-02  4.9525e-02 4.2378e-02  3.0662e-02  2.9109e-02  1.0080e-01 -5.6384e-02 -1.0136e-01 5.1712e-02  6.3757e-02  3.4455e-02 -3.1210e-02 -7.7562e-02 -1.9551e-02 -1.6537e-02  6.3523e-02  8.5202e-03 -7.7084e-03 -9.3461e-02 -3.1249e-02 2.4755e-02 -6.0529e-03 -6.7077e-03 -1.5364e-01 -8.0682e-02  8.0071e-02 7.2261e-02 -1.2183e-02 -1.4994e-01  9.9890e-02  7.5588e-02 -6.4184e-02 -2.9732e-02 -5.8682e-02  1.8180e-02 -1.0335e-02  7.7492e-03 -1.9843e-02 -7.6102e-02 -1.3659e-01  5.4732e-02  3.6758e-02 -3.8066e-02 -4.4290e-02 -2.7987e-02  3.9251e-02 -3.6046e-02  4.0489e-02 -4.6670e-03  1.5806e-03 1.4480e-02 -9.5339e-03
1.2116e-01  8.4354e-02 -2.5048e-02  3.4897e-02  3.6235e-03  6.8784e-02 4.8913e-02 -2.6813e-02  4.8676e-02  2.0303e-03 -2.7029e-02  1.2872e-02 2.0377e-02 -1.9269e-02 -3.8867e-02 -5.1707e-02  1.1026e-01  4.9452e-02 -8.3406e-02 -9.2089e-03  1.0053e-02 -6.1216e-02 -7.0088e-02 -3.2390e-02 7.9662e-02  4.8881e-03 -1.3555e-01 -4.4741e-02  3.9142e-02  2.0352e-02 1.6766e-02 -3.7669e-02  3.7956e-03 -7.5508e-02  2.5183e-02 -2.0355e-03 2.6284e-02  4.3510e-02  8.8348e-02  4.1236e-02 -6.5296e-03  3.9802e-02 4.3906e-03  5.4859e-02 -1.2691e-02 -1.9606e-02 -7.0977e-02 -9.5082e-02 -1.0135e-01 -1.7240e-01 -8.3772e-02 -2.2488e-02 -2.0053e-01 -9.4151e-02 9.2867e-03  7.5242e-02 -1.5240e-01  2.1306e-02  7.2207e-02  1.2872e-01 2.6714e-02  3.3763e-03  3.9298e-02  5.7432e-03  5.8902e-02 -4.0242e-02 4.5787e-02  1.1842e-02  2.6113e-02 -1.9755e-02  2.8829e-02  3.5163e-02 6.3945e-02  3.0867e-02  2.5730e-02  3.1956e-02  3.0401e-02  3.9975e-02 1.0053e-02  4.7484e-03  1.8550e-01  1.0684e-01  1.0130e-01 -7.5603e-03 5.9031e-02  3.0921e-02 -6.0357e-02 -1.6358e-01  6.1992e-02  3.9788e-02 -1.2030e-01 -7.5424e-02 -1.4911e-01 -7.7451e-02 -9.7925e-02 -3.3620e-02 -1.3145e-01 -5.0202e-02 -3.4273e-02  1.0050e-01 -1.8165e-01 -2.9539e-02 -4.6235e-02 -5.0950e-02 -1.2452e-01  2.5334e-02  4.8194e-02  2.6632e-02 6.3957e-02  6.6415e-02  2.0577e-02  3.2502e-02 -5.6369e-03 -4.7519e-02 -6.6376e-02 -6.8224e-02  1.1953e-02  2.3768e-02 -6.0879e-02 -3.8885e-02 3.0729e-02  5.5440e-02 -2.1214e-03  1.0011e-02 -2.7147e-02  2.3417e-02 2.7819e-02  4.5645e-02 -7.1780e-02 -9.4904e-02  2.5232e-02  1.1469e-01 -7.7773e-02 -1.1955e-01 -9.8115e-02  1.4226e-02  5.1262e-03 -5.8035e-02 -8.8250e-02 -6.0032e-02  3.1587e-02  5.7793e-02  6.9841e-02  1.1967e-02 -1.2023e-01 -8.4135e-02  1.5192e-02 -4.2156e-02 -1.0620e-01  1.3956e-03 8.4483e-02  1.1541e-01 -1.1651e-01 -4.2407e-02  6.3639e-02  5.7697e-03 -2.2195e-02  6.2592e-02  1.1140e-01  3.8649e-02 -1.0593e-01 -1.1368e-01 5.9471e-02  1.4890e-01 -1.5958e-01 -6.9795e-02  6.0734e-02  5.5541e-03 -2.4282e-01 -1.8835e-02 -7.4383e-02 -4.6771e-02 -1.0821e-01 -3.7606e-02 -7.8385e-03  3.2830e-02 -1.4521e-03 -6.8407e-02 -1.5916e-01 -4.9008e-02 3.5909e-02  1.2977e-02 -7.3475e-02 -6.1906e-02  3.1489e-02  6.2160e-02 -4.4257e-02 -8.1412e-03  3.3482e-02  7.4204e-02  2.5715e-02 -4.6872e-02 8.3426e-02  5.1755e-02 -4.5765e-02 -4.5174e-03  6.4734e-02 -1.0892e-01 -1.9169e-01 -9.8882e-02  4.5882e-02 -5.0928e-02 -5.8996e-03  5.0568e-02 5.1894e-02 -6.0918e-02 -7.8879e-03 -5.8666e-02  8.0120e-02  3.2611e-02 7.9883e-02 -6.9055e-03  4.4427e-02 -3.4999e-02  1.1464e-03 -1.3340e-01 1.1214e-02  3.5184e-02  2.0414e-02 -3.3974e-02 -5.6047e-02  7.0598e-02 -2.2109e-02  4.1079e-02  5.4166e-03 -1.8309e-01 -9.7430e-02  1.8467e-01 -4.9694e-02 -5.4023e-02  3.4774e-02  1.1096e-01 -1.4746e-01 -1.2091e-01 -4.3805e-02  3.9510e-02 -1.2879e-01 -9.8945e-02  4.1785e-02 -2.8834e-02 -9.0010e-02 -1.3849e-01 -7.9440e-02 -3.2932e-02 -9.9226e-02 -1.0160e-01 -1.1167e-01 -5.4067e-04  6.5092e-03 -4.0697e-02 -2.6647e-02 -5.8963e-03 7.0217e-02  6.4192e-02  2.4111e-02  5.2315e-03  1.7248e-01  7.1259e-02 8.8398e-02  3.5732e-02  7.2848e-02  2.0596e-02  1.6402e-02 -8.8011e-02 -1.7448e-02  8.9441e-03 -9.9129e-02 -5.2661e-02 -1.2600e-01 -2.9850e-02 3.2744e-02  5.0028e-02 -9.3874e-02 -1.7069e-02  2.3240e-02  1.4978e-02 3.2685e-04 -2.7036e-02 -3.3344e-02  2.7495e-02  6.4245e-03  4.3614e-02 -4.9339e-02  4.7320e-02 -9.6434e-03  4.7637e-02  3.6171e-02  5.5374e-02 -9.2977e-02 -9.8566e-02 -6.5336e-02 -3.2464e-02 -9.0086e-02 -1.7271e-02 9.2976e-02 -1.7190e-02 -2.2349e-01 -2.5467e-02 -1.1065e-02 -1.0618e-01 -9.1552e-02 -5.2925e-03  6.5975e-02 -1.0972e-02 -8.1841e-02 -1.8044e-01 -5.9095e-02 -9.3536e-02 -9.8025e-02 -1.5848e-01 -4.3745e-02  1.5585e-01 3.1244e-02  9.7097e-03  9.8532e-03 -4.6721e-03  6.3179e-02  8.9881e-02 -2.3748e-02 -5.5774e-02  3.5558e-02 -3.5630e-02 -2.3110e-02 -1.8924e-02 -3.7930e-02  2.6496e-02 -2.4255e-04  2.1979e-02 -2.1703e-02 -3.8868e-02 1.6309e-02 -6.0519e-03 -9.8430e-03 -8.2970e-03  3.4200e-02 -1.9179e-02 -1.0704e-01 -9.9019e-02  2.1435e-02  5.4536e-03 -1.7011e-01 -5.7537e-02 3.0826e-02  4.2831e-02 -1.1677e-01 -3.1076e-02 -5.6330e-02  8.0708e-03 3.0653e-02 -3.1352e-02 -6.0935e-03 -7.8592e-02 -2.3363e-01 -7.0229e-02 -6.0167e-04  1.2661e-01 -1.3923e-01 -1.0819e-01 -3.0043e-02  3.3421e-02 -1.0170e-01 -1.2952e-01 -4.7247e-02 -8.5642e-02  2.3455e-02  7.1372e-02 1.5248e-02  7.0631e-02 -1.6149e-02 -1.4587e-01 -7.9984e-02 -1.9524e-02 -1.9657e-02 -5.0362e-03  7.3046e-02  1.2546e-01  8.0558e-03  1.1620e-01 7.2286e-02  7.6883e-02 -7.2703e-02 -6.7217e-02 -1.2733e-01 -5.0349e-02 -6.5932e-02  6.1282e-02 -9.1998e-02  2.5194e-02  2.0263e-02  8.3757e-02 -1.3865e-01  1.8159e-02  1.3690e-02  1.4297e-02 -7.9116e-02 -2.1341e-01 2.0696e-02 -9.6284e-02 -8.7594e-02  8.2767e-04 -9.7225e-04  1.0926e-01 5.3781e-02  1.0181e-01 -5.9086e-02  3.5669e-02 -1.3052e-02 -5.0616e-02 -1.1052e-01  3.9325e-04 -9.8877e-02 -1.0440e-01 -1.1519e-01 -4.3805e-03 -5.0054e-02 -2.9259e-02  5.3755e-02  1.2430e-01  1.7816e-01  6.6977e-02 -1.3447e-02  3.9581e-02 -5.2158e-02 -4.6056e-02 -9.4231e-03 -1.5947e-03 -7.5747e-02 -9.2271e-02 -5.4278e-02 -6.4467e-02 -6.2283e-02 -1.4359e-02 1.3107e-02  2.5625e-02 -5.7076e-02 -1.2525e-01  1.1565e-02 -3.9042e-02 -5.4116e-02  1.1458e-02 -2.5300e-02  7.8365e-02  4.9186e-02  5.1556e-02 2.7358e-02  8.3998e-02 -4.0170e-03 -2.6237e-03  3.5810e-02 -3.9587e-05 5.7410e-02  3.7070e-02  5.5603e-02  7.6117e-02 -5.4070e-02  4.2602e-02 5.3559e-03  4.7492e-02 -5.2135e-02 -1.5673e-03  4.7443e-03  3.7522e-03 -6.0301e-03  7.3561e-02  5.8332e-02  1.7178e-02 -4.7456e-02 -1.0479e-01 2.7502e-02  1.3455e-03  7.9923e-03 -3.3254e-02  1.2766e-03  4.3141e-02 9.8573e-02  2.5388e-02  5.4333e-02  8.1839e-02  4.6991e-02 -8.4388e-02 1.0504e-01  7.7986e-02  6.0750e-03  1.3061e-01 -1.4877e-02  1.0384e-01 5.5134e-02  1.3046e-02 -9.2169e-03 -2.1350e-02 -9.5356e-02 -1.2745e-01 -4.0549e-02 -1.2356e-01 -4.7864e-02 -4.3853e-02 -1.5821e-02 -5.3411e-02 -1.0732e-01 -1.4821e-02 -6.9016e-02  1.0219e-02 -2.0393e-02  1.0375e-02 -7.1832e-03 -1.9730e-02  5.4805e-02 -2.9226e-02  1.8212e-02  9.2107e-02 4.6782e-02  1.7760e-03
1.2481e-02 -2.6945e-02 -9.9535e-03  3.3758e-02 -6.6731e-02  2.6978e-02 5.9592e-02  5.7761e-03 -2.9920e-02 -5.6649e-02 -3.3497e-02 -3.7735e-02 4.5770e-02 -1.3517e-02  4.4091e-02  1.2409e-03 -1.0648e-01 -8.8763e-02 -5.2357e-02 -1.6247e-01  5.0306e-02  4.4321e-02  6.2192e-02  4.3171e-02 1.3616e-01 -3.5307e-02 -5.5023e-02 -3.5077e-02 -7.7627e-02 -9.6414e-03 9.1752e-02  3.2143e-02  1.3258e-02  7.5751e-03 -2.1667e-02  6.5861e-02 -1.4496e-01 -4.0650e-02  6.4651e-02  1.4977e-02 -2.6529e-02  1.6327e-03 2.5323e-02 -1.0904e-01 -5.0657e-02  6.6232e-03 -2.6496e-02 -2.0377e-02 1.1900e-01  4.8627e-02  4.5245e-02 -1.5859e-02  5.6382e-02  2.8733e-02 9.9314e-02  4.8583e-02 -3.3532e-02 -1.0565e-01 -9.6682e-02  8.5850e-02 -1.2429e-02 -3.2621e-02 -2.3786e-02  6.2793e-02 -1.1621e-02 -1.1150e-01 2.4236e-02 -2.0352e-02 -3.3787e-02  6.2786e-03  2.6352e-02  8.5340e-03 -2.2194e-02  3.9468e-02 -1.0713e-02 -3.0306e-02  1.2545e-02  3.8788e-02 -9.3084e-03  3.0469e-02 -1.3245e-01 -7.4445e-02  4.9830e-02  1.0135e-01 1.1951e-01  1.0570e-01  2.7662e-02 -8.1462e-04  2.2732e-01  1.1290e-01 -7.4357e-03  6.3440e-02  1.2825e-01  9.6558e-02  5.5966e-02  3.4039e-02 3.4096e-02  2.1966e-02 -4.9504e-02 -5.7819e-02  5.7847e-02  3.1150e-02 -1.2986e-02  3.2784e-02 -4.8221e-02 -2.2870e-02  2.3028e-02 -2.1630e-02 -1.6080e-01 -7.5887e-02 -1.7229e-02  7.4078e-02  2.0727e-03 -5.1815e-02 -2.4214e-02 -5.9929e-02  3.3377e-02 -4.7394e-03 -4.9898e-03  1.1822e-02 -6.1197e-02 -4.5498e-02 -5.6306e-02 -2.8924e-02 -1.2602e-01 -7.3177e-02 -9.8712e-03 -1.7061e-02  8.4590e-02  2.4112e-02 -7.3110e-04 -7.2856e-02 5.1738e-02  2.6647e-02 -6.7186e-02 -1.6215e-02  8.4740e-02 -1.5287e-02 4.4189e-03  3.1293e-02 -1.9236e-01 -1.3751e-01 -1.2032e-01 -5.0429e-02 1.2814e-01  1.1337e-01  5.5758e-02  4.4692e-02  1.6754e-02 -1.5759e-02 -9.2278e-02 -2.6027e-02 -9.4266e-02 -4.7420e-02 -1.0781e-01  8.2321e-02 -2.5414e-01 -1.9517e-01 -8.8419e-02 -1.3333e-02  1.4568e-01  1.7229e-01 8.5972e-02 -6.4340e-02  4.1256e-02  1.0019e-01 -1.7708e-02 -4.0070e-02 9.2480e-02  4.1226e-02 -6.9280e-02 -2.1340e-02  7.6246e-03 -1.5363e-02 -9.0192e-03  2.9099e-02  7.7629e-03 -2.6534e-02  3.0526e-02 -7.5537e-02 2.4885e-02  1.9109e-03  4.5940e-02  6.2384e-02 -1.4344e-02 -8.3632e-02 -7.8508e-02 -2.9897e-02 -7.5602e-02 -2.5016e-02  5.7498e-02 -2.6042e-02 1.5588e-02  5.4326e-03  6.5461e-03 -2.1178e-03  1.2844e-01 -1.8745e-02 4.6467e-02  5.3467e-02  1.1460e-01 -9.4413e-03 -7.2234e-02 -4.4159e-02 8.5579e-02  7.3174e-02  5.7063e-03 -3.9449e-02 -1.0031e-01 -1.1996e-01 -5.0168e-02 -2.7818e-02 -4.7251e-02  8.1055e-02  1.2290e-02  3.1155e-02 2.6987e-03  7.9097e-02 -3.5398e-02  3.8293e-02 -8.8754e-02  6.6053e-02 8.7418e-02  4.6660e-02  1.7935e-01  1.8588e-01  8.1508e-02 -1.0295e-01 9.6543e-02  3.1941e-02  2.0848e-02  5.5398e-02 -2.5478e-02 -3.8554e-02 -8.2015e-02 -3.8989e-02 -3.3293e-02 -4.8551e-02 -9.0417e-02 -3.9041e-02 5.9710e-02 -4.9488e-02  1.6633e-02 -5.2857e-02  2.4094e-02 -3.6002e-02 2.3955e-02  1.8896e-02 -2.4119e-02 -3.4888e-02 -3.0000e-02  5.3479e-02 -1.7190e-02 -3.0419e-02  4.4471e-03 -8.8303e-02 -8.9192e-02 -8.8859e-02 -2.1644e-02  9.1381e-02  3.1743e-02 -6.4105e-03 -8.2632e-02 -6.3374e-03 4.8012e-02  5.0954e-02  2.8408e-02  2.0048e-02  5.0930e-02  4.2182e-03 1.5220e-02  3.4758e-02  3.3472e-02 -8.3932e-04  5.9174e-02 -1.2459e-03 8.4051e-03 -1.6491e-02 -3.6400e-02 -2.5361e-02  2.4861e-02  2.9947e-02 -1.4500e-02  1.6947e-02 -6.2012e-02 -1.0519e-01 -1.6357e-01 -2.0026e-01 -2.5744e-02  6.6564e-03 -5.7310e-04  1.2084e-02  9.3148e-02  7.4251e-02 2.6662e-02 -6.7855e-02  1.1099e-01 -9.0786e-02 -2.0657e-02  2.0406e-02 7.6615e-02 -5.7051e-02 -4.5521e-02  1.7009e-03  6.4430e-03 -1.2638e-02 -2.2532e-02 -5.1381e-02 -1.2355e-01 -6.7989e-02  2.1562e-02  1.1011e-02 5.2470e-02  1.0104e-02 -1.2016e-01 -1.2691e-01 -1.1945e-01 -1.6905e-02 5.1983e-02 -1.6639e-01  1.1291e-02 -1.8339e-02 -1.3719e-02 -4.8860e-02 -2.9570e-02 -3.0859e-02  9.4182e-03  2.6600e-03  1.4405e-02  3.6701e-02 -1.1734e-03  1.5209e-02  2.2051e-02 -2.8973e-02  2.7675e-02  1.6967e-02 4.4631e-02  5.9079e-02  9.9839e-02  7.9026e-03  4.4002e-02  6.5581e-02 1.4864e-01  3.1630e-02  1.1045e-02 -1.1652e-01  2.1049e-02  3.6505e-03 -2.0183e-02 -9.7664e-02  7.2767e-02  7.8933e-02  1.2148e-01  3.1335e-02 -2.2304e-02 -1.2905e-01  1.5949e-02 -4.7250e-02 -3.7507e-03  3.0985e-02 3.9043e-02 -3.1046e-02 -3.2880e-02  2.3752e-02 -7.8349e-02 -8.0177e-02 -5.7751e-02 -2.3375e-02 -5.5983e-02 -3.6763e-02  3.4478e-02 -1.1138e-02 -1.5792e-01  8.0827e-03  7.9959e-02  1.5799e-01  3.2385e-02  1.3805e-01 5.5821e-02 -8.4847e-02 -4.2732e-02 -5.5149e-02  1.0804e-01  9.6488e-02 -2.3502e-04 -1.0549e-01  2.9336e-02  9.4390e-02  6.0058e-02  5.4583e-02 7.1196e-02 -2.6597e-02  3.8368e-02  2.1391e-02  1.0952e-01 -2.7820e-02 1.1813e-02  9.3925e-02 -4.0206e-02  1.0202e-03  1.2241e-01  4.6242e-02 8.4394e-02  5.9830e-02  1.1139e-01  6.3362e-02 -1.2535e-01  7.1571e-02 4.8696e-02  1.7836e-01  1.0164e-01 -7.8485e-02 -1.7746e-02  6.1161e-02 -2.1775e-02 -6.3534e-02 -1.0668e-01 -7.5083e-02  2.0481e-02  2.3279e-02 -3.9166e-03  8.9598e-02 -2.3887e-02  2.9123e-03  2.2694e-03  3.2609e-02 3.3199e-02 -5.9371e-02  4.2305e-02  2.6904e-03  1.2707e-01 -3.2253e-02 6.5443e-02 -1.5621e-02 -2.9966e-02  1.5232e-02 -4.8569e-02 -1.3674e-02 -4.7257e-03  6.4877e-02 -1.0152e-01 -1.7791e-02  7.8947e-02  3.8669e-02 -8.8320e-02 -8.6912e-02  4.5356e-02  2.4898e-03  2.4033e-02 -2.0683e-03 5.3442e-02  3.7234e-02  3.5113e-02 -3.1719e-02  3.3171e-02 -1.2965e-02 -7.5866e-02  6.0211e-02  1.5048e-01  5.0681e-02 -1.4939e-01 -1.8459e-01 -8.9226e-02 -2.7804e-01  6.8571e-02 -1.9548e-02  3.7069e-02  2.6656e-02 -1.3124e-01 -9.1805e-02 -1.2755e-02  2.2112e-03 -1.4149e-01 -9.3688e-02 -5.2312e-02 -4.5827e-02 -1.5604e-01 -5.9382e-02  1.8605e-02  2.2775e-02 7.9678e-02  3.0336e-02  1.8077e-02  3.5248e-02 -3.3005e-02 -1.6900e-01 1.0900e-01 -3.9254e-02  5.2022e-02 -1.4597e-01  8.8748e-02  5.1151e-02 -1.5244e-01  2.4410e-02 -2.5197e-02  9.9904e-02  1.2638e-01  5.1082e-02 3.2549e-02 -3.2083e-03 -4.9184e-02 -2.8902e-02 -6.0047e-02  1.8979e-02 -5.1746e-02 -7.0105e-02 -7.2639e-02 -4.7521e-02 -1.5738e-01 -6.9642e-02 -5.4882e-02 -4.2264e-02
6.2915e-02 -7.5004e-03  2.4829e-02 -4.7378e-03  1.4319e-02 -1.5500e-03 3.5460e-02  4.8941e-02  6.7050e-02  3.3878e-02  1.1679e-02 -8.1807e-03 1.2306e-01  6.3880e-02 -6.1363e-02 -2.2094e-02 -4.8739e-02  3.2216e-02 -1.1506e-01 -1.0444e-01 -6.3679e-02 -5.6838e-02 -4.6276e-02 -1.3933e-02 5.4058e-03  6.0249e-02  5.5638e-02 -1.6460e-02  1.3878e-01  7.5011e-02 -1.4062e-02 -7.8294e-02  5.3093e-02  1.2973e-03 -8.6054e-02 -7.2977e-03 -6.8956e-03  9.5933e-03 -7.8100e-02 -3.5633e-02 -8.9026e-03  5.6940e-02 -4.9764e-02  3.5752e-02  1.1770e-01  1.0006e-01 -7.5263e-02 -5.3918e-02 -8.5722e-02 -1.9230e-02  5.1550e-02 -9.0146e-03  7.0041e-02  6.8557e-02 -1.7901e-04  8.8690e-04  8.5977e-02  5.2246e-03 -2.4369e-02 -8.3918e-03 -6.4903e-02 -6.3734e-02 -7.6434e-02 -4.7108e-02  1.0078e-02  5.1604e-03 -5.9249e-02 -6.9359e-02  1.0115e-03 -2.5794e-02 -2.5795e-02 -9.7569e-02 -5.9850e-02 -5.5634e-02 -3.8585e-02  2.9153e-03  2.2755e-02 -8.5252e-02 -3.1406e-02 -9.8278e-03  2.8074e-02 -4.1515e-02 -1.1970e-01 -4.7304e-02 -5.2267e-02 -7.8868e-02 -2.3669e-03 -3.2667e-02  1.7887e-02 -1.5680e-02 -2.2822e-02 -5.7691e-02 -2.6299e-04 -2.6141e-02 -9.5871e-02 -3.3475e-03 -3.9218e-02  6.2938e-02  1.2292e-01  4.4321e-02 -1.4101e-02  2.6174e-02 2.9377e-02 -2.5758e-04 -7.6088e-02 -5.0429e-02 -5.6135e-03  5.1399e-02 -2.4906e-02  3.1466e-02 -5.5965e-02 -1.3372e-01  2.9752e-02  9.6030e-02 1.7305e-02  2.8281e-02  2.4494e-02  8.0917e-02  7.8484e-02  1.7185e-03 3.6659e-02  1.4679e-02  2.2946e-02  7.5740e-02 -1.6584e-02  3.9768e-02 7.3015e-02  4.0033e-02  6.3141e-02 -2.2037e-02 -7.8508e-02 -5.3178e-02 -4.1639e-02 -1.2110e-02 -1.1288e-02  7.7208e-02 -6.3875e-02 -3.3427e-02 2.3912e-02  3.9929e-02  6.4046e-02 -2.9167e-03  1.6432e-02 -1.0339e-02 3.9570e-02 -2.4444e-03 -4.2718e-03  7.3831e-02  1.8841e-01  1.0753e-01 -3.7695e-03  4.1750e-02  3.7955e-02  7.8400e-02  6.8291e-02  1.1436e-01 3.4229e-02 -1.4754e-02 -4.5899e-02  1.0475e-02 -6.1887e-02  4.6422e-02 -6.5063e-03 -2.8704e-02 -4.6493e-02 -2.9980e-02 -5.1426e-02  1.4974e-02 -1.5545e-02 -5.9498e-02 -5.1567e-02  5.0883e-02 -1.7102e-01 -6.6690e-02 -3.8757e-02 -5.7004e-02  1.8662e-02  8.7878e-02  3.9520e-02  2.4559e-02 2.2941e-02  6.0357e-02  1.4234e-02 -4.3810e-02 -4.3296e-02  4.1998e-02 5.9660e-02 -5.7534e-02  4.4654e-02  6.2633e-03  1.4513e-03 -6.9571e-02 -1.2892e-01 -1.0309e-01  2.7542e-02  5.5452e-03 -7.6037e-02  4.9594e-02 1.3709e-02  6.6068e-02  3.8253e-02  8.1196e-02 -5.1442e-02  1.8435e-02 -1.2218e-01 -4.5619e-02 -5.3217e-03  9.1613e-02  2.5676e-02 -7.3482e-02 3.3375e-02 -3.4842e-02  4.3465e-02  7.8426e-02 -2.4105e-02 -3.2351e-02 1.9841e-02  1.7494e-02  2.7309e-02  3.3174e-02  1.9755e-01  9.0587e-02 -2.5019e-02 -9.2427e-02  3.5863e-02 -7.2439e-02  4.7506e-02 -7.7605e-04 -2.1532e-02 -2.4724e-02  1.6395e-02 -1.8946e-02 -8.1911e-02 -1.3554e-01 -1.7845e-02  9.7627e-02 -3.8235e-02 -1.1626e-01 -6.2164e-02  2.4054e-02 2.7988e-02  8.8524e-02 -5.9165e-02 -4.6941e-02  5.8200e-02  7.0370e-02 -1.5629e-02 -6.7235e-02  3.7962e-03 -2.0026e-02 -5.9332e-02  4.1183e-02 -6.1013e-03 -7.8917e-03 -4.9584e-03 -7.0298e-02 -8.5136e-03  4.8179e-02 3.1821e-02 -2.8398e-02 -9.4338e-02 -1.4479e-02  7.6099e-02  9.2243e-02 8.6159e-02  6.5235e-02  6.0550e-03  4.6402e-02 -5.1725e-02 -1.4436e-01 -1.0184e-01 -8.8727e-02 -1.4756e-02 -2.2845e-02  3.5957e-02  2.6073e-02 -2.0228e-02  4.3870e-02  7.1809e-03  1.2661e-01  8.1140e-02  3.1211e-02 -8.7584e-03  2.6536e-02 -5.0131e-02  5.3069e-02  1.5829e-02  4.3586e-02 1.5275e-02 -2.2063e-02  8.8102e-02 -2.1498e-02 -6.9025e-02 -1.6829e-01 -1.9710e-02  7.2325e-02 -7.0261e-02 -9.2022e-02  2.9787e-02  7.9017e-02 -1.8219e-01 -2.5545e-03  1.3454e-01  4.0073e-02  4.4801e-02  2.0703e-02 -6.3860e-02  6.1903e-02  8.7462e-02  1.2640e-01 -4.0625e-02 -6.3266e-02 -5.4241e-02 -1.4349e-02  4.2992e-02  1.1196e-01  8.1628e-02  8.0329e-02 -2.9196e-02 -6.3363e-02 -1.3979e-03 -2.0709e-03  4.1099e-04 -3.4670e-02 1.2327e-02  1.5399e-02  2.3163e-02  1.5953e-02 -7.9060e-03  2.8929e-02 1.3622e-02 -1.8187e-02 -1.2682e-02 -1.2127e-02 -1.0337e-02 -1.1402e-02 6.5601e-04  5.1121e-02 -3.1917e-02 -1.3200e-02 -5.4302e-02  2.4721e-02 -5.5728e-02 -4.1470e-02 -4.5769e-02 -3.4458e-02  5.5241e-02 -5.3252e-02 -5.3775e-02 -5.9112e-02 -5.0740e-02 -1.0646e-01 -1.0138e-01 -9.2776e-02 -1.0694e-01 -1.6403e-01  6.1296e-02 -1.0479e-01 -1.1666e-01 -1.3080e-01 6.6305e-03 -9.8313e-02  4.4921e-03  5.3057e-02  1.5015e-02  1.3401e-02 -7.1375e-02 -1.6117e-01  8.1564e-02  2.2377e-02  4.8695e-02  1.2413e-02 -4.8850e-02 -3.1169e-02 -7.3549e-02 -7.8386e-02 -2.3732e-02 -8.3013e-02 -9.5815e-02 -1.1891e-01  3.7421e-02 -8.8609e-02 -5.0039e-02 -1.9819e-01 -6.9849e-03 -1.9435e-02 -2.0204e-01 -5.7178e-02 -1.5339e-01 -1.1811e-01 -7.1241e-02  8.9350e-03  1.8092e-02 -3.2548e-03  4.1385e-03 -5.2186e-02 8.4862e-02 -6.3318e-02 -1.5577e-01 -2.9146e-02 -1.9992e-02 -1.1321e-01 -3.8040e-02 -5.0130e-02 -1.1263e-02 -3.8756e-02 -8.4577e-02  9.5206e-03 -1.0234e-01 -3.0593e-01 -7.8947e-02 -4.8170e-02 -2.8679e-01 -9.8951e-02 -1.4053e-01 -7.3012e-02  3.7353e-02 -1.3423e-01 -6.8216e-02 -2.1691e-02 -6.8117e-02 -5.8438e-02  5.7102e-02 -3.6050e-02  6.3491e-02 -2.1053e-02 -1.3404e-01  3.6804e-02  1.1992e-02 -1.0189e-01 -6.0426e-02 -4.1561e-02 -2.6120e-02 -5.0388e-03 -4.4133e-03 -2.6191e-02 -3.0445e-02  8.2139e-03 6.0411e-02 -4.6983e-02 -2.5846e-02  1.3528e-02  7.3557e-06 -1.4012e-01 2.8256e-02  9.0558e-02  5.1386e-02 -7.0584e-03 -9.3378e-03 -2.0598e-02 5.1945e-03  4.7684e-02  6.2816e-02  2.5631e-03 -1.3299e-02 -5.2735e-02 1.6314e-02 -6.7309e-04 -3.4239e-02 -1.1386e-01  2.8526e-02  4.2868e-02 -5.8179e-02 -4.7941e-02 -3.6296e-02 -4.2173e-02 -1.2031e-02 -7.7454e-03 1.5932e-02  7.3229e-02  1.0375e-01 -8.3185e-02 -3.9296e-02  2.8121e-02 4.3357e-03  1.8713e-02 -1.0661e-04  2.2155e-02  9.7081e-03  3.4885e-03 2.5030e-02 -1.6600e-02 -1.5681e-01 -1.6812e-02  7.8272e-02 -1.2202e-02 -3.7941e-03 -9.0237e-03  1.7545e-02  2.5813e-02  5.3214e-02 -1.5522e-01 8.4276e-02 -8.6740e-02 -1.8401e-01 -1.0820e-01 -1.8571e-02  2.2064e-02 -6.0371e-02  5.5970e-02  1.0955e-01  3.8250e-02 -6.9243e-02 -4.7221e-02 6.4505e-02  4.4736e-02  4.5034e-02  3.9112e-02  5.2514e-02  4.3399e-02 -3.2994e-02 -2.1063e-02
5.8831e-02  3.0962e-03 -6.5216e-02  1.0767e-02  1.0435e-01  2.1805e-02 -1.5909e-02 -4.3916e-02 -3.7904e-02 -1.0565e-01  2.2790e-03 -4.2978e-02 -6.7379e-02 -8.9106e-02  1.7905e-02  5.1810e-02 -1.4057e-01  1.4049e-02 -3.6491e-02 -5.8163e-02  8.4251e-03 -3.8119e-02  4.6045e-02 -3.6564e-02 1.7535e-02  3.6123e-02  7.4996e-02  6.0386e-02 -9.4448e-02  3.9854e-03 8.2636e-03  7.0787e-02  4.7162e-02  7.4660e-02  3.0063e-02 -1.1082e-02 1.8293e-02  6.9440e-02  5.9329e-02 -3.7725e-02 -6.1596e-02 -9.7568e-02 6.4857e-04  3.3615e-02 -1.7400e-01 -6.4746e-02  5.1620e-03  1.5831e-02 -1.6045e-01 -3.0777e-02  5.3360e-02  1.5745e-02 -5.9229e-02  5.7277e-02 3.5486e-02 -9.5966e-03  2.0542e-02  8.4130e-02  2.8322e-02 -1.0172e-01 2.7347e-02  1.3338e-02 -1.1248e-01 -1.4295e-01  1.4897e-02  2.7259e-02 -4.8688e-02  4.0047e-03  5.5529e-02  4.9104e-02 -4.5554e-02 -1.5158e-02 4.3387e-02  1.3121e-02 -1.8911e-02 -2.8589e-02 -6.8147e-03  1.9219e-02 2.0665e-02  2.1301e-03 -4.5951e-02 -7.6857e-02 -1.9516e-01 -6.4402e-02 2.7178e-02 -3.3899e-02  5.0396e-02 -7.9321e-02 -1.1782e-01 -1.1354e-01 8.6785e-02  5.7367e-02 -6.3572e-02  6.7861e-02  9.7997e-02  6.1001e-02 -9.1390e-02 -2.7040e-02 -6.7013e-03 -6.7705e-02 -6.1237e-02  1.0291e-01 6.7248e-02 -7.6305e-02  2.8140e-02  6.3197e-02  6.5003e-04  2.6887e-02 4.1043e-02 -7.4531e-02 -2.4838e-02  4.5338e-03 -2.3475e-02  6.4397e-02 1.0177e-02  2.6805e-02 -2.8386e-02  5.1581e-02  4.5661e-02  3.0097e-02 -1.1091e-02 -1.9604e-02 -1.8836e-02  2.3006e-02  1.4281e-02 -6.0606e-02 -1.5911e-02 -4.0512e-03  7.1464e-03 -1.3521e-02 -4.7135e-02 -3.7245e-02 -6.4165e-02  1.7996e-03  6.4674e-02 -6.6414e-02  2.6517e-02  8.1721e-02 1.0078e-01 -9.9570e-02  5.2742e-03  1.0926e-02 -6.5970e-03 -6.0030e-02 -3.9250e-02  3.1465e-02  7.9070e-02  7.5430e-02  3.2576e-02  2.6994e-02 -4.2633e-02 -8.9667e-02  7.4932e-02  4.6221e-02 -1.3235e-01 -1.2895e-01 -7.4470e-02  3.0034e-02 -4.4408e-02 -1.4399e-01 -7.3813e-02  6.7822e-02 1.3505e-02  1.2095e-02 -1.0370e-01 -5.2122e-02 -4.2892e-02  3.1949e-03 -4.0064e-02 -2.1436e-03  1.2921e-01 -4.0812e-02  1.0661e-01  1.2219e-01 5.3834e-02 -7.5184e-02  1.2353e-02  1.1073e-02 -5.2173e-02  3.4676e-02 1.0005e-02 -3.6450e-02  3.3376e-02  2.2146e-02 -1.0917e-02  2.7221e-02 9.1257e-04  7.7404e-02 -2.9479e-02 -4.5678e-02 -3.9535e-02  3.7163e-04 -1.6370e-02 -8.0314e-02 -9.2797e-02 -9.1493e-02 -1.1398e-01 -2.3870e-02 -1.2194e-02  7.6006e-02 -4.5840e-02  3.5435e-02  8.5417e-02 -7.0239e-03 -2.9439e-04  7.8434e-02  8.9551e-02 -9.8513e-04  1.0599e-01  9.8705e-02 -2.2649e-02 -1.4589e-02  9.6028e-02 -6.9359e-02  2.8866e-02 -2.1957e-02 -3.2063e-03 -8.4137e-02  4.2951e-02  4.0638e-02 -5.5813e-02 -9.1052e-02 -5.3768e-03  5.3694e-02 -1.1678e-01 -9.8819e-02 -4.0479e-03  1.2699e-03 3.8394e-02 -4.0830e-02 -5.8726e-02 -1.1116e-01  1.1720e-02  8.7576e-02 7.7272e-02 -1.6015e-01  5.9979e-02  8.7112e-02  9.8502e-02 -8.8572e-02 -1.0885e-01 -2.0443e-01 -4.7244e-02  4.9156e-02  2.5510e-02  6.3933e-02 -5.0546e-02 -5.0372e-02  5.1864e-02  2.4131e-02  1.4148e-02 -5.9754e-02 3.4224e-02  6.3567e-02 -1.1091e-02  1.5369e-02  8.0035e-02  7.2211e-02 2.5605e-02 -7.4499e-02 -5.7471e-02 -5.1550e-02  5.9994e-02 -4.0006e-02 -1.2879e-01 -1.0253e-01  2.0370e-02 -5.5485e-03 -7.0198e-02  1.0981e-02 2.4737e-02  3.6959e-03  1.5992e-02  6.9541e-02  6.3187e-02 -3.0723e-02 -1.0965e-01 -2.2665e-02  9.1526e-02 -2.0118e-02 -1.1890e-01 -3.1792e-02 4.5709e-02 -4.9154e-02 -6.7941e-02 -1.9179e-02 -1.4851e-02 -1.0506e-01 -1.1706e-02  7.0238e-02  3.5833e-02  3.8284e-02 -1.0709e-01 -2.7629e-02 2.5789e-02  7.3386e-02 -7.3845e-03  8.0719e-03 -5.0792e-02 -2.8498e-04 1.0884e-01  2.2745e-02 -1.3137e-01 -1.1528e-01 -6.4133e-02  2.2506e-03 2.3047e-03  4.8452e-02  7.6920e-02  2.2586e-02 -5.7150e-02  9.3608e-06 5.6222e-02 -9.6029e-02  2.8926e-02  1.3046e-02 -1.2649e-01 -4.5623e-02 8.1215e-02  1.3368e-01  1.1570e-02 -3.8334e-02  1.2636e-05 -3.1222e-02 -2.1865e-02  4.2325e-02  3.9649e-02 -3.7183e-02 -2.4720e-02 -9.6908e-03 -1.8509e-02  3.4230e-02 -4.7748e-02 -4.6909e-02  1.1457e-02 -3.0037e-02 3.9220e-02  8.2040e-02  6.4374e-02 -4.4049e-02 -8.2590e-02  2.7510e-02 -8.7537e-02 -1.5026e-01  1.9783e-02  1.0590e-01 -8.3217e-02 -1.5452e-01 6.0590e-02 -3.2968e-02  4.5879e-02 -6.5720e-02 -2.4947e-01 -6.0230e-02 5.0823e-02  1.5301e-01  3.0223e-02  1.1735e-01  3.7352e-02 -1.8347e-02 8.1477e-02  5.6448e-03  5.1513e-02 -3.8088e-02  2.5709e-02  7.2406e-03 -3.0972e-02 -1.0605e-02  4.3095e-02  2.3254e-02 -3.2318e-03 -2.6264e-02 5.3120e-03  8.9704e-02 -1.2846e-01 -9.2174e-02 -1.9552e-01 -6.8774e-02 -2.4643e-02  3.1389e-02 -1.0060e-01  4.2112e-02  1.9591e-02  3.7944e-02 2.0267e-02 -2.4833e-01  6.4882e-03 -1.0228e-01 -1.3432e-01 -1.2343e-01 -6.8666e-02 -1.7854e-02 -4.0690e-02 -4.3317e-02  2.6182e-02  1.1064e-01 -6.2014e-02  2.8439e-02  1.0707e-01  5.5366e-02 -1.3332e-01 -2.0798e-01 -1.6644e-01 -1.6295e-01 -1.8305e-01 -1.5873e-01  7.8914e-02  2.0662e-02 -5.6147e-02 -1.2706e-02 -6.8586e-02  1.9331e-01  9.9543e-02 -2.1080e-01 4.1823e-02  7.9520e-02  8.6170e-02 -7.1366e-02 -3.1938e-01 -1.7499e-01 -3.6298e-02 -3.3703e-02  8.6471e-02  7.2892e-02 -3.0954e-02 -1.6727e-02 1.2869e-02  1.1035e-02  3.3975e-02  1.0043e-02  1.1229e-02  7.9471e-02 8.7700e-03 -7.1418e-03  1.7198e-02  3.5448e-02  4.8158e-02  1.3654e-02 2.3154e-02  3.8481e-02  3.1979e-03 -3.3809e-02  1.0267e-02 -2.7951e-03 -4.2900e-02 -1.2118e-01 -7.3649e-02  1.6641e-02  5.5114e-02 -2.7760e-02 5.4539e-03 -3.8669e-02 -9.2394e-02 -5.0137e-02 -2.2427e-02 -1.3354e-01 3.8939e-02 -4.7079e-02 -4.1863e-02 -2.6887e-02  1.3014e-03 -8.1382e-02 -6.0044e-02 -1.2859e-02 -7.2048e-02 -7.7936e-02  3.7190e-03  1.7099e-02 5.6911e-02  2.6319e-02  4.2085e-02  4.6532e-02  2.3346e-02  6.9564e-03 -8.7296e-02  2.9108e-02 -1.4961e-01 -1.4612e-01 -4.4850e-03  7.2098e-02 -1.3707e-01 -3.6322e-02 -9.0502e-03 -1.5432e-02  3.9001e-02  1.0585e-02 -1.3109e-01  1.0194e-02  1.4965e-01  1.8365e-02 -3.5273e-02  3.4155e-02 -5.5280e-02  1.1024e-02  7.3569e-02  5.5074e-02 -1.3441e-01  7.6511e-03 4.2632e-02  1.3003e-02  4.0104e-02  2.2242e-02  2.7469e-02  1.6837e-02 5.2305e-02 -8.6716e-03 -7.6340e-03  1.7537e-02  3.2132e-02 -7.4474e-02 -8.1782e-02  6.4276e-0

